-0.00231895 -0.02619241  0.00709615 -0.01615134 -0.00201957 -0.02067591
   0.01742776 -0.02219286 -0.01455127  0.00823064 -0.01610244  0.00756334
  -0.0037709  -0.0058256   0.00527542 -0.00153816  0.02738348 -0.00106599
   0.02295457  0.02728494  0.01628159  0.01250811 -0.01194936 -0.0213796 
  0.01262714  0.02468826 -0.00851274 -0.00666231  0.01998633  0.01432647
  -0.00229139 -0.02343489 -0.00953602 -0.01262225 -0.01237276 -0.01447562
   0.00942004  0.01592449 -0.01760512 -0.0037308  -0.02354901 -0.01387794
   0.01148076 -0.02405083  0.01689679  0.01979157 -0.01245314  0.02663017
 -0.0011902  -0.03030066 -0.07986657 -0.01766996 -0.00784425 -0.02919219
  -0.02868686 -0.0212459   0.00034525  0.01556185  0.00664717  0.00808255
   0.00883462 -0.02364311  0.00283755 -0.01683261  0.01138316  0.00807165
  -0.01006342  0.00042426 -0.01457293 -0.14944059  0.21411166  0.12285456
  0.02309961  0.02151151 -0.01467982 -0.02332873 -0.01427213 -0.00023877
   0.01781221 -0.00112043 -0.02162835  0.01102601 -0.02887072 -0.02132178
   0.01811895 -0.02216374  0.00899385 -0.0061273  -0.01954493  0.00272391
  -0.01204476 -0.01090712 -0.02581008 -0.01666529 -0.02296279 -0.02598045
 -0.04800726  0.1205947  -0.08517771  0.01612836 -0.01979303 -0.00053239
   0.03394885  0.00352341 -0.01778518 -0.02133417 -0.00465148  0.02645995
  -0.00108651 -0.01789417 -0.00499527 -0.00792565 -0.00216839  0.02102403
   0.00673063  0.0450616   0.06792556 -0.06814919 -0.15445423 -0.01013394
  0.0042985  -0.04059219  0.06628473  0.04954363  0.00461471 -0.00251249
   0.004102   -0.01349033 -0.00252523 -0.00129991 -0.02486326 -0.01739541
   0.0097448   0.01269162  0.01745148 -0.03620787 -0.00630961 -0.0055819
  -0.01255651 -0.05630253 -0.02849169  0.18971036 -0.10022194 -0.06819484
  0.01502037  0.02717694  0.01373016 -0.0265015  -0.02599871  0.02013944
   0.0283946  -0.01925622  0.00345355 -0.01142286 -0.02691509 -0.02217291
  -0.0261381   0.01438907  0.00161768  0.02036264  0.02799472 -0.01433165
   0.02763972 -0.01275    -0.000168   -0.00968127  0.00322507 -0.02328528
  0.01899637 -0.0192611   0.02413719  0.01430592  0.02373605 -0.00855384
  -0.00622523  0.02763104 -0.0176166   0.02876506 -0.01059496 -0.00483816
  -0.02345438  0.00409866  0.02730497  0.02530379 -0.01573581  0.02038698
   0.01906018 -0.02109958 -0.00076894 -0.01471416  0.01051261  0.01669452
  0.1281262   0.0423657   0.01829818 -0.01539286 -0.00783699 -0.00343908
  -0.00270909 -0.01898797  0.0185049   0.01339725 -0.01877839 -0.00440743
   0.02752257  0.00929704  0.022028    0.01838021 -0.01212361  0.02173168
  -0.02201529  0.01729629 -0.02696411 -0.13341357  0.01352681 -0.05449416
  0.01878633  0.01880714 -0.02043073  0.01313183 -0.00338784  0.02647039
  -0.01656857 -0.00571588 -0.01010044  0.00596312  0.02540848  0.02387706
  -0.01023744  0.02176194 -0.02621505  0.0179069  -0.01609785  0.01890114
   0.00357316 -0.00757998 -0.00679381 -0.03270471  0.00723257 -0.00131432
 -0.01421152  0.09270694  0.10910842  0.03927393  0.02864816  0.00979652
   0.03170431  0.0021706  -0.00772142  0.03389141 -0.03106831 -0.01800901
  -0.00758255 -0.01450244  0.0083136  -0.00207381 -0.02552471 -0.02611831
  -0.01435891 -0.01786894 -0.02568527  0.05819296 -0.18293753 -0.09107585
 -0.02767322 -0.00664477 -0.04638479 -0.01631784  0.00560945 -0.01452005
  -0.0142064  -0.04300465  0.01019707  0.00654575 -0.00613347  0.03299804
   0.00109781  0.02728846  0.00292904 -0.00004305 -0.04695138 -0.02849523
   0.0133689  -0.02758742  0.00485759 -0.11459979  0.31443226  0.0233766 
 -0.00281998  0.02884695  0.02323068 -0.00417656  0.0261706   0.01336779
  -0.02042324 -0.01472316  0.01508548 -0.01458549  0.01297639 -0.02713313
   0.02392985  0.02452935  0.02403085 -0.00979468  0.01835148 -0.00073294
  -0.00243904  0.02443463 -0.00519201 -0.02053862  0.01351527 -0.01744888
  0.02889621 -0.02397938  0.02600482  0.01676048 -0.01340574 -0.01150755
   0.02587574 -0.0182759  -0.00434882  0.02072901 -0.01300296 -0.0017767
   0.01180787  0.02714704 -0.00831497 -0.02384965 -0.01761452 -0.01490345
   0.00643541  0.0028672   0.02369244 -0.00069969 -0.01213158  0.02547197
  0.00039697 -0.01482843  0.01339286 -0.00278056  0.01149777  0.00036333
   0.00994173 -0.00340651  0.01729432  0.01590526  0.00105056 -0.01022584
   0.02537076 -0.02091526  0.02981725  0.00409377 -0.00147636  0.00945693
  -0.00335351  0.01930013 -0.02460582 -0.04507928 -0.02865318  0.07456235
  0.03308731  0.01903513 -0.02713565 -0.00225134 -0.00404932 -0.02564397
   0.00845394 -0.0042375   0.02296299  0.01867168  0.01707292  0.02272113
  -0.02649434  0.00793453 -0.01357222  0.00776354  0.02183671  0.00085874
  -0.00660499 -0.01022717  0.00641262 -0.02974726  0.00148117 -0.01943859
 -0.0440746  -0.01021218  0.03377805  0.02103903 -0.00190338  0.00258951
  -0.00176868 -0.0002818  -0.02215748  0.01314955  0.02448014  0.05705386
  -0.01903655 -0.01182638  0.01781028 -0.00877324  0.0472573  -0.01619047
   0.00772673  0.02313495  0.02783197  0.02374791 -0.08602805  0.02152685
  0.0298019   0.06501929  0.10786998  0.01678838 -0.01429127  0.02796474
   0.03146776  0.01492327  0.02571647 -0.00928957  0.02534821  0.01130917
  -0.00556322  0.02697139  0.01504249  0.00305973  0.01497548  0.0312561
   0.03042986 -0.0032346   0.01322556 -0.10787097 -0.04012834 -0.09721947
 -0.02179069  0.0180967   0.0157793   0.02724331  0.01616079 -0.02895122
  -0.01559548 -0.01991378 -0.01156495  0.02364562  0.00152006  0.014276
   0.0031931   0.00976403 -0.000641    0.02866307 -0.02158858  0.02287897
  -0.02869043 -0.00456366 -0.01839126 -0.02182365 -0.01465144  0.02841845
  0.01205943  0.0278568   0.02618391  0.02558325  0.02687573  0.02900755
   0.00111584  0.02703062  0.02779184  0.00543463  0.02088605  0.01503187
  -0.00891478 -0.01451133 -0.01249313  0.00706087 -0.00712738  0.01324973
   0.01650108  0.00966094  0.00629966 -0.01909532  0.02392541  0.02827905
 -0.00380856 -0.12202675 -0.09625019 -0.07202787 -0.02757991 -0.06343165
  -0.02269099 -0.02661427 -0.02421768 -0.01854847 -0.00562173  0.03063527
  -0.02296622 -0.00046377  0.01905511  0.01611047  0.05636277  0.02047189
   0.02394056  0.10222374  0.0135356   0.13366084 -0.01845278  0.14425312
 -0.0105376   0.01401903 -0.01903126  0.00402452 -0.02817404 -0.00986983
  -0.00395429  0.01070356 -0.00519713 -0.02241442 -0.00927913 -0.01043695
  -0.01289431  0.00110966  0.01816598 -0.0221865   0.02083698 -0.01647284
   0.02437366  0.00157967 -0.00745236 -0.00571807  0.01273337  0.03706217
  0.10647536  0.02534598  0.00874104 -0.00273588  0.03594448  0.00973758
   0.01732206  0.0349647  -0.02029428  0.03678067  0.02354087 -0.0328792
   0.01323974 -0.02951453 -0.02991515 -0.04508545 -0.0148173  -0.03462091
  -0.02476843 -0.0303522  -0.02563425  0.00541957 -0.02641308 -0.01567788
 -0.06278822  0.04926357  0.15908954  0.08764985  0.0662033   0.05312083
   0.07244997  0.06278189  0.06026919  0.04160528  0.00802516 -0.00032613
   0.03479641 -0.03348703 -0.03537617 -0.04830453 -0.04452715 -0.09044322
  -0.04799515 -0.05498553 -0.09617031 -0.12130036 -0.1887531   0.00167851
 -0.01469514 -0.00280537  0.01384897 -0.01123803 -0.01454441 -0.00627613
  -0.00053226  0.0145594   0.00954954  0.01314666  0.01634455 -0.00090211
  -0.01595917 -0.01733324  0.00682568 -0.00987235 -0.00995902 -0.01983422
  -0.00681218 -0.02090569 -0.02422809  0.02290535 -0.02802949  0.00345703
 -0.02797381  0.01582617 -0.02821627  0.01293047  0.02077378 -0.026182
  -0.0262107   0.0064441   0.01158438  0.00245571 -0.02346959  0.01132536
   0.01086667  0.00046388 -0.00941721  0.00222425  0.02491214 -0.02538564
  -0.00626479 -0.01985375  0.02326259 -0.0238246  -0.00536792  0.0217413 
  0.12076359 -0.04693548 -0.0745686  -0.05905653 -0.03021334  0.0053283
  -0.02651327 -0.01911348 -0.01806409  0.007186   -0.0029061   0.01171773
   0.01550604  0.01710687  0.01717743 -0.00309569  0.03360412  0.05071906
   0.01670559 -0.00006354 -0.03545972 -0.01888315  0.05011052  0.03668444
 -0.00555495  0.005069    0.01644928  0.0280229  -0.02450089  0.01274468
   0.01016889 -0.00409674 -0.02425311 -0.00848823 -0.00589689 -0.00407254
  -0.0274085   0.00294624  0.01933661  0.02291936 -0.0212064  -0.01842302
  -0.00866195  0.00265454  0.0229607  -0.01616131 -0.00855529 -0.0127696 
  0.00457013  0.00389144  0.01548666  0.01459575 -0.01034637 -0.02913473
  -0.01033566 -0.02171703 -0.01465952  0.01919515  0.01492473 -0.03893399
   0.01475006  0.01590053 -0.0017258  -0.00769233  0.00660471  0.03114432
   0.0161198   0.04264897  0.00763729 -0.03693865 -0.00650734  0.00960796
  0.02672651 -0.05670393 -0.15093365 -0.01002023 -0.07566205 -0.05487446
  -0.04348463 -0.00156513 -0.01400464 -0.01272881 -0.01972779  0.00764471
   0.02521257 -0.00377188  0.01501474  0.01107497  0.0222541   0.01105461
   0.02436977  0.02869806  0.02435896  0.00955729  0.03178246  0.06420126
  0.01574635  0.01332327 -0.00209645  0.02150262  0.0275882   0.00358132
  -0.00969526  0.00999628  0.01875932  0.02719599  0.01810903 -0.02305488
   0.02403291  0.00295443  0.01578498 -0.0199487  -0.02692698 -0.02797927
  -0.01100211 -0.0118051   0.01621199  0.02474302 -0.00230446  0.01366687
  0.02018937  0.00231275 -0.01970243 -0.00548098 -0.00379656  0.0223374
   0.00048357 -0.01140189  0.01951374  0.01153178 -0.02707161 -0.01102461
   0.02525521 -0.00073073  0.0232831  -0.01214871 -0.00926822  0.00582949
   0.02314343 -0.0138335  -0.02224871 -0.00720572 -0.00166278 -0.02527835
 -0.02854703 -0.10507146 -0.06184378 -0.04488941 -0.05753327 -0.02988785
  -0.05729866 -0.04045885 -0.00479719 -0.00184065 -0.00040717 -0.03998648
  -0.01216046 -0.02434806  0.0181059  -0.01244886  0.06558128  0.0487913
   0.02613035  0.0175307   0.01073548  0.08817986  0.14066052  0.11403926
 -0.00588528 -0.02049683  0.02488231  0.00402187  0.00802556  0.01051038
   0.01825775 -0.00370159 -0.01783508 -0.00852271  0.0088986   0.01084877
  -0.00868956 -0.00943893 -0.00369029  0.02165142 -0.00766697 -0.02473352
   0.00068863  0.00759046  0.0141728  -0.00086748  0.01792346  0.02630238
  0.02298217  0.00739322  0.11408785 -0.0370086   0.00597995  0.0006422
  -0.01958582 -0.02866594 -0.03682793 -0.02584815  0.01234605 -0.03652716
  -0.00020438 -0.00557592  0.00552012  0.00521309 -0.02630103 -0.03222761
  -0.01722074 -0.00092268 -0.02167584  0.0673269  -0.02146362 -0.00332771
  0.0298537  -0.03781797 -0.11962128 -0.08718099 -0.05322258 -0.10676254
  -0.03028189 -0.05407562 -0.03385853 -0.03180607 -0.04465057 -0.00300213
   0.02460473 -0.00831874  0.03656951  0.04310086  0.04204314  0.10225214
   0.05382237  0.1083009   0.10652265  0.01660298  0.06371753 -0.02237889
  0.01526422 -0.02458026 -0.00055272  0.02612031  0.01359817  0.02828413
   0.00321311 -0.01923462  0.01645796  0.02733701  0.00482367 -0.01434708
  -0.00706987  0.02663273  0.01222572  0.01785594 -0.00100202 -0.02854645
   0.01469591 -0.02398317 -0.01966278 -0.0233318  -0.01338939 -0.02619518
  0.02014606 -0.02146165  0.01304516 -0.01952496  0.00103507  0.0128102
   0.0275258   0.02180376 -0.00430901 -0.02212527 -0.01440557  0.00803274
   0.00598852 -0.00673846 -0.00896751  0.01310334  0.02701051 -0.02089501
   0.00215387 -0.01971692 -0.0092      0.0123829   0.02169834  0.01441404
  0.0574747   0.04706009  0.08124652  0.03712886  0.06673687  0.04254032
   0.05956855  0.04070401  0.01382907  0.02400623  0.03392356  0.01349932
  -0.01442914 -0.04154323  0.01181105 -0.04322175  0.00275377 -0.04120307
  -0.03583793 -0.01541111 -0.13862176 -0.03737679 -0.11636376  0.08880409
 -0.01407471  0.01727694  0.02396578  0.00404297 -0.01339047 -0.02017868
   0.0256154  -0.00603093  0.01742742  0.02091713 -0.02599299  0.00719445
   0.00705207  0.0216942  -0.00658789 -0.02318665 -0.02837612 -0.03195466
  -0.00695692 -0.01481973  0.02936509  0.01239719  0.01738186  0.02658411
 -0.1560404  -0.10030916 -0.14330383 -0.09122951 -0.02940096 -0.02122214
  -0.03786267 -0.0335763  -0.01913918 -0.030248   -0.00670931 -0.01980888
  -0.03222786  0.01145478 -0.01707714  0.02112449  0.04184952  0.03869749
   0.01692559  0.05201354  0.14294335  0.11262491  0.18705301  0.01170549
 -0.01329549 -0.02163358  0.18102838  0.02692828 -0.00415239  0.01857901
  -0.00669284 -0.0246552  -0.00454295  0.00463823 -0.00426035 -0.03245784
   0.00590155 -0.02358    -0.02142894 -0.02754792 -0.0067966  -0.0237107
  -0.04833901 -0.07301148 -0.08434979  0.04624375 -0.02142894  0.02498063
 -0.00193712 -0.01337485  0.0224509  -0.0001516  -0.02238753  0.02229216
   0.00635468  0.00506989  0.01073182 -0.0015145   0.02740696  0.02544356
   0.02152279 -0.02665183 -0.02166534  0.01268315  0.00459866 -0.01286954
   0.02348912  0.00691421  0.0122328  -0.02048369  0.02588747  0.00246688
 -0.02888208  0.02454686  0.0069613   0.00218834 -0.02330067  0.01086479
   0.0006145   0.01177488  0.00057373 -0.0175521  -0.02708866  0.01276015
   0.01992022 -0.01035542 -0.01534578 -0.02045679  0.00475369 -0.00158716
   0.01283699  0.00043213  0.02793363  0.02405581  0.00025437 -0.00349239
 -0.01947455 -0.05445512 -0.06329665 -0.00458931  0.00321881 -0.02904021
  -0.02721399 -0.01263962 -0.01127344 -0.02961378 -0.02401432  0.00779025
  -0.02415817  0.01406812  0.01788458 -0.02599413 -0.00709837  0.00340164
   0.02461552 -0.02296048  0.03407434  0.09665124  0.1155666   0.01636173
  0.03246763 -0.02562336  0.02259711  0.02827771 -0.0128628   0.02848692
  -0.02076145 -0.00346368 -0.02674269  0.01400794  0.0116099   0.0167476
   0.02514405 -0.02351379  0.01738222  0.0018372   0.02143796 -0.00986144
  -0.01436621 -0.03261336 -0.03927468 -0.00822027 -0.05095273 -0.01263777
 -0.02749281 -0.03353288  0.1409177   0.05080085  0.01574188 -0.00683639
  -0.00138557  0.01860592 -0.00554882  0.02071215  0.02584555  0.05074587
   0.03954776  0.03729911  0.00908624  0.02745942  0.06178693  0.0289257
  -0.01632372 -0.00986703 -0.03279043 -0.13692528 -0.10574441 -0.00541646
 -0.01339819  0.02636349  0.03096734  0.01318342 -0.00330187  0.04716124
   0.0164798  -0.02596604 -0.00651458  0.01693851 -0.00080426 -0.01474443
   0.00676085  0.0177697   0.01378175 -0.03061198  0.00891296 -0.00779998
  -0.00901251 -0.04866382 -0.01457135 -0.03064453  0.033171    0.05570948
  0.01094136 -0.01516336  0.01900016 -0.00797694 -0.01325537 -0.0173795
   0.02405608 -0.01208654 -0.01512379 -0.02763038 -0.02026843  0.02246733
  -0.0193251   0.00999339  0.00650039 -0.02570392  0.02896017 -0.02831876
   0.00786428  0.01072386  0.02811254  0.02666671 -0.00200825 -0.00972512
 -0.02832222 -0.01384572 -0.00372108 -0.02476761  0.00363019 -0.01597577
  -0.01987808 -0.00378339 -0.02602392 -0.0040569  -0.02195065 -0.01880152
   0.01777593 -0.01978929 -0.00716287 -0.00303154 -0.00396757 -0.02373903
   0.01748843 -0.02795222  0.01582423  0.02834111 -0.01560171  0.00375841
  0.1981645   0.15072936 -0.06347063  0.02521644  0.00013255  0.00963465
  -0.00750643  0.02943193 -0.01330017 -0.01738573  0.01555292 -0.01597646
   0.01129018  0.01716866 -0.03345384  0.00735236 -0.02635152 -0.03944848
  -0.01888886  0.00955701 -0.10106965 -0.1245188  -0.0395861   0.00559287
  0.02253701 -0.00028981  0.01602033 -0.01811815  0.0130108  -0.0257358
  -0.00488921 -0.02479001 -0.00790697 -0.00179663 -0.0032399  -0.00892209
  -0.02123558  0.02219545  0.00086003  0.02464773  0.01002131  0.02141525
   0.01483527  0.00293615  0.01326394  0.00584547  0.03760036 -0.01107   
  0.06355637  0.0990646   0.11831838  0.0579229   0.01385131  0.06304931
   0.05938653  0.01841193  0.00277154  0.03363012 -0.01179575  0.04411066
   0.00003963  0.01097937  0.02331724  0.01859743 -0.02043237 -0.00024683
  -0.00274489 -0.09367435 -0.14080052 -0.16954872 -0.12954307  0.08716679
 -0.08561622 -0.1759361  -0.01139133  0.02674447 -0.00664672 -0.00555232
  -0.02299932 -0.03424596 -0.02857966 -0.02818024 -0.01088588 -0.00707829
   0.0092035  -0.01226102  0.00216738  0.01088995 -0.01067907  0.00830741
   0.02831902  0.05550423  0.09374189  0.08598834  0.14851707  0.02709244
 -0.00065993  0.00176804  0.02726949 -0.00244357  0.02791561 -0.01236313
   0.02548921 -0.02490033 -0.00171026  0.02156011  0.02044007  0.02528671
   0.02817434  0.02250041  0.01942764  0.00940739  0.01614257  0.02751668
   0.00575029 -0.00130439  0.02243809  0.00639769 -0.00404287  0.02473412
 -0.01233807 -0.00112807 -0.00039293  0.00217986 -0.02706702  0.02097585
  -0.02173384 -0.01465782  0.01138651 -0.0047311  -0.00037387  0.02761694
   0.01957273  0.0193386   0.00485012  0.00546172 -0.01754505  0.00908151
  -0.01934916  0.00241797 -0.01786227 -0.00382501 -0.00765719 -0.01628332
  0.03603869  0.01558873 -0.06216238  0.01008142 -0.02389817  0.02330842
  -0.02353296 -0.01768203 -0.01983145 -0.00645174  0.0213616  -0.0029854
  -0.0366362   0.02082237 -0.0396332  -0.01440151  0.03596453  0.01671419
  -0.01034184  0.00674002  0.03042253  0.05698547  0.02388761 -0.03781627
 -0.00418005 -0.00623347  0.01913376  0.01354814 -0.02192552  0.02201287
   0.00631743 -0.02067512  0.0005235   0.00865493  0.01037022 -0.01748767
   0.02488444  0.02495225 -0.01184778  0.01785098 -0.01025567 -0.01467707
  -0.02588803  0.02524389  0.02220494 -0.02142425  0.01275141  0.01597556
 -0.09258294  0.0064581  -0.01190394  0.04021057  0.01866502  0.00223004
  -0.01920954  0.00448316  0.01862034 -0.02616535  0.00951897  0.00899452
  -0.02035414 -0.01045894 -0.0194421   0.00155428 -0.00127651 -0.0073891
   0.02259577 -0.04516377  0.01707629  0.0270783   0.06660789  0.00287712
  0.07797676  0.07219397  0.0123947   0.01526008  0.04172935  0.04069483
   0.04393606  0.02096758  0.01202816 -0.00929486  0.02871644  0.01554684
   0.02260521 -0.0029412  -0.02475831 -0.03427165 -0.03878448 -0.05114103
  -0.04303567  0.0768951  -0.05334445 -0.1335543  -0.11104762  0.00501041
 -0.02129576  0.00132993 -0.00666759  0.00648291  0.00066912  0.01913653
  -0.01011262  0.0279139  -0.0059069   0.00428076 -0.00284046 -0.02815918
  -0.00025459  0.02508084  0.00009634  0.01828149  0.00897796 -0.01306022
  -0.00274652 -0.0119248   0.01044037  0.01915945  0.01021945  0.00430353
  0.01560639  0.00454708 -0.01411747 -0.00685456  0.02643422 -0.0131038
   0.01644116  0.00271913  0.01501764 -0.01809433 -0.01383176  0.00192442
   0.01784717  0.02846197  0.01967685 -0.02426498  0.02454596 -0.00427834
  -0.00707528 -0.02076014 -0.010293    0.01039889 -0.016643    0.02705974
  0.1459138   0.21380602  0.140415   -0.074063   -0.04473742 -0.06083915
  -0.0436211   0.00137941  0.00920112 -0.05055417 -0.01104126  0.00972124
  -0.01027455  0.01648706 -0.0200671  -0.00453907 -0.00186949 -0.00118552
  -0.04268981 -0.05158957 -0.01533832  0.01837847  0.03438322 -0.07271396
  0.00915142 -0.0031127   0.00214007 -0.00378548 -0.00168705 -0.02679497
  -0.02409869  0.01169978 -0.00794343  0.01567971 -0.01685     0.01169781
  -0.00386678  0.01621697  0.01188368 -0.0019423   0.00896001 -0.00791035
  -0.02782826 -0.01377277 -0.00366477 -0.01694875 -0.02259517 -0.0192846 
  0.11336789 -0.07666046 -0.04113207  0.0278107   0.05005518  0.05567986
   0.00256197  0.04144716  0.03866227  0.03735829  0.00178311 -0.00293651
  -0.01280283 -0.0138189   0.00865955 -0.02455914  0.00865945  0.01294615
  -0.02235645 -0.07528314 -0.0441669  -0.02666542 -0.01487194 -0.02894207
 -0.05349906 -0.10476086 -0.1869475   0.008282    0.02317374  0.00227267
   0.02256952  0.02657171  0.00730025  0.03792771 -0.00820485  0.01957197
  -0.0159413   0.03157765 -0.0044533   0.01483173  0.00681153 -0.01251652
  -0.01119861  0.00597643  0.04438506  0.04617669 -0.04716545  0.00098826
 -0.00300758  0.01713278 -0.02764923  0.0151912   0.01486122  0.02386129
   0.02383144  0.02286314 -0.01848959  0.01060309 -0.00006316  0.02061284
  -0.01088504 -0.00515813  0.02196931 -0.00878357 -0.0058503  -0.01219512
  -0.01037386  0.02557283 -0.00605837  0.02319298 -0.00502091 -0.02280921
  0.02035864 -0.01011668 -0.02380627  0.01207868 -0.0204996   0.00197093
   0.00917664  0.01928517  0.01115205 -0.00407408 -0.0025974   0.01533239
   0.0169503   0.01280952  0.00010143 -0.01638987 -0.00318447 -0.02845335
  -0.01685048 -0.01086603 -0.02553974  0.00333929  0.0196247  -0.0265864 
  0.06463707 -0.09663656 -0.13017382 -0.0789298  -0.03169695 -0.02209694
  -0.0068662  -0.04085076 -0.03245253  0.00064541 -0.01276677 -0.00141601
   0.00653268 -0.00597967 -0.00925769 -0.02238212 -0.03376871  0.01018008
   0.02770384  0.09517213  0.08950714  0.12703529  0.11001956 -0.02980431
 -0.01608347  0.02514946  0.02186283  0.02312671  0.00205112  0.00542296
  -0.00739477 -0.02345511  0.01547364 -0.00157021  0.01465412  0.01728173
   0.01381229  0.02140408 -0.028773    0.01643937 -0.01745083 -0.02200168
  -0.02886125  0.00316124 -0.03114987 -0.01846928 -0.00002105  0.02468162
 -0.12624422 -0.13116914  0.17476226  0.02212683  0.03480082  0.01613835
   0.04082401  0.02535957  0.05317095  0.00026541  0.00899319  0.01936365
   0.01621862  0.03059215  0.01663796  0.00468614  0.02425815 -0.01611079
  -0.01047675 -0.04553786 -0.07776325 -0.03317162 -0.04111033  0.08136459
  0.02331721  0.01376343 -0.02836778 -0.09324908 -0.06278057 -0.03302576
  -0.01923886 -0.04014996 -0.01228611 -0.00256365 -0.00141274 -0.03061418
  -0.03195843 -0.0290752  -0.00454298 -0.02594412  0.0224172  -0.01129647
  -0.00778891  0.01118214  0.05234214  0.14741759  0.09325574 -0.04312151
 -0.0045078   0.02498918 -0.00954806  0.02482169  0.01742706 -0.01551164
   0.01073985 -0.01235729  0.00397457  0.00182478 -0.02588536  0.02662646
  -0.01726536 -0.00704821  0.00651915  0.00349355 -0.00945121 -0.02824991
  -0.00029759  0.0057347  -0.00567418  0.02130671 -0.01717509 -0.00729272
 -0.02495481  0.01603239  0.02099148 -0.00146327 -0.01275619  0.01731416
  -0.01580652  0.00314726  0.00819704  0.00672224  0.00317971 -0.01411706
   0.00360921  0.01644131 -0.02453499 -0.0219124   0.02420892  0.00439176
   0.0263599  -0.0055164  -0.02263623 -0.01732612  0.00392408 -0.02452202
 -0.06402355  0.17031966  0.25765052  0.02584925 -0.01617954 -0.00767184
  -0.0338841   0.03321001  0.01511267 -0.00850951 -0.02286165 -0.02321839
  -0.00684158  0.01977617 -0.00799153  0.00822266 -0.01227092  0.01323407
  -0.0390301  -0.00971398 -0.09674308 -0.07787559 -0.05132788 -0.01624593
  0.00656946  0.01112134 -0.01560766 -0.03061104  0.00764381  0.00023796
  -0.02614706 -0.01821999 -0.03059764 -0.00664414 -0.02675218 -0.01407603
  -0.02203492 -0.01753308 -0.02353252 -0.01267259  0.01874782  0.01657698
   0.02025247  0.01481299  0.03697351 -0.00331366 -0.01289668 -0.0168994 
 -0.13299172  0.11394386 -0.09223326 -0.01448046 -0.05376064 -0.03328763
  -0.02577916 -0.02467567 -0.05886835 -0.04159709 -0.05083996 -0.02958727
   0.0129685   0.01133004  0.01069436  0.003185    0.0211314   0.01671961
   0.04826273  0.04266125  0.0818236   0.19018154  0.10356873 -0.10567386
 -0.07444538 -0.01724243  0.08093969 -0.03770858 -0.05252157 -0.04868454
  -0.01805915 -0.00324878 -0.03403961 -0.03152363 -0.01667579  0.00473388
  -0.02766275  0.01182895  0.00079325 -0.00529265  0.0049381  -0.02401524
   0.01748419  0.03321753 -0.01886063  0.07933288  0.14390638  0.00416747
  0.02184744  0.0050693   0.02699293  0.00936931 -0.00390651 -0.0098146
  -0.01742786 -0.02435957 -0.01392568  0.01720618  0.02227969 -0.02630746
  -0.02798143 -0.0251447   0.0220336   0.02532014  0.00060153 -0.00909039
   0.02263878  0.02066211  0.00327059  0.01466044 -0.02171895 -0.00643378
  0.00377773  0.00427755 -0.01200987  0.02742056  0.01570603 -0.00676972
  -0.02002948  0.01369436  0.01279494  0.02597715  0.0216438   0.00006915
  -0.00749476  0.01746679  0.02410081 -0.00486623  0.00567649  0.01947165
  -0.01441502 -0.00353186 -0.01567293  0.00254148  0.02361768  0.02168452
  0.20355305  0.16627172  0.00372272  0.01033972  0.04770885  0.00599712
   0.01678786  0.00879473 -0.01662332  0.02328787 -0.02453994  0.01924047
  -0.02055568  0.01872383 -0.01426714  0.00949512 -0.05683323  0.01894492
  -0.01481347  0.00349955 -0.02264094 -0.24008617 -0.09302314  0.01189759
 -0.00514778 -0.01618755  0.03119691 -0.02253235 -0.00500845 -0.00978085
   0.02785768 -0.0131445   0.02380355 -0.00837164 -0.02054871  0.01948353
  -0.00680265  0.01429269 -0.01501155 -0.01561993  0.0155427  -0.03225414
  -0.00435446  0.01512062 -0.0194707   0.02403619  0.00600059 -0.02191707
 -0.03690654  0.02608827 -0.21736355 -0.12179498 -0.03452644 -0.03303589
  -0.04661004 -0.02097741 -0.03848979 -0.00720035 -0.00761919 -0.00910976
  -0.02676723  0.019809    0.00612294 -0.02559549 -0.02491982 -0.01844176
   0.03728941  0.15279579  0.12309007  0.21288052  0.127951   -0.05801625
 -0.07160178  0.03518057  0.14863491  0.0126533   0.06173402  0.06051264
   0.02763636  0.03124745  0.01100696  0.00806216  0.01034216 -0.00338577
  -0.01807237  0.00296635 -0.02643591  0.05387989  0.02711615 -0.00216908
  -0.05157859 -0.05382756 -0.08592657 -0.10711778 -0.06740215 -0.03130753
 -0.01012902 -0.02731632  0.00485925  0.02654967  0.01329526  0.02359314
   0.01691891  0.01794548 -0.00455511 -0.005075    0.02795406 -0.01746468
  -0.02784963 -0.0090284  -0.0120914  -0.00155899  0.0048688   0.00404954
   0.0072878  -0.00469371 -0.00529808 -0.01172241 -0.01848449 -0.0017465 
  0.01234412 -0.00500573  0.00335285  0.01172847  0.01780477 -0.02333513
  -0.02291068  0.00758027 -0.01431553  0.01844526  0.00266576  0.02120642
   0.02662974 -0.01585532  0.02283978  0.02751552 -0.02105199  0.00144199
  -0.01868946  0.02351269 -0.00757331  0.00851066 -0.01258854  0.00693747
  0.01529569 -0.11475184 -0.00766743 -0.03122749  0.01266184  0.01773068
  -0.00171387  0.00811055 -0.00856656 -0.00296307 -0.01719233 -0.03250922
   0.03572429  0.02089919 -0.02835527 -0.03026172 -0.03663067 -0.0200524
  -0.04617086 -0.06813028  0.01094518 -0.05083499  0.1388855   0.05828871
 -0.00227371 -0.02263738  0.02503358 -0.02102367 -0.01874052 -0.00625698
   0.02304626 -0.01598813 -0.01393726  0.02914158  0.00261355 -0.01548268
   0.00352455  0.02904002 -0.01560764  0.01216782  0.00098686  0.02812394
   0.01081067  0.0025172   0.01351038  0.04006555  0.01172019  0.01724952
  0.03950666  0.07674114 -0.06768256  0.01839187 -0.04085564 -0.02763937
  -0.00768363 -0.01397303 -0.00867606 -0.03493018  0.00356794  0.01154003
  -0.02618352 -0.00790699  0.00044021  0.01974302  0.03655991 -0.02374401
   0.00256193  0.01125559  0.02783341 -0.04316286  0.13285881 -0.0121204 
 -0.03783469 -0.06853549  0.08703299  0.03792429  0.02492178  0.03621067
   0.00369263 -0.00468723 -0.01483928  0.0180887   0.00321887 -0.0198549
   0.02036043  0.04179719  0.0335508   0.00673628 -0.0084079  -0.01798524
  -0.01314048  0.0089174  -0.05443729  0.16144636 -0.05932777 -0.03304966
 -0.00453139 -0.0099694   0.00633993  0.02755466  0.02808868  0.01980905
  -0.02499624  0.01778096 -0.01204972  0.01723774  0.01574933 -0.02169991
   0.00775721  0.01233358  0.02487373  0.01910855 -0.01760913 -0.01220364
   0.01526237  0.02568631  0.02136102  0.00770066 -0.00993572  0.0192169 
 -0.0042595  -0.01652047  0.02211277 -0.01426848  0.0003925  -0.02612428
  -0.01970514  0.017825    0.02704295 -0.02499756 -0.02337886 -0.01146127
  -0.01475261 -0.02660475 -0.01915524 -0.01826253  0.01430061  0.00717671
   0.02288305  0.00892888  0.02398039 -0.00196674 -0.0082253   0.01619514
  0.006989   -0.02805756 -0.1027936  -0.01959865 -0.02317352 -0.02301149
  -0.0118067   0.00034244 -0.00734509  0.006843    0.01122821  0.03744328
  -0.01353632  0.00911924  0.0083895  -0.01214608  0.01991397 -0.00846879
   0.02721824 -0.02065226  0.00056448 -0.08719972  0.04573154 -0.00474856
 -0.02024176 -0.01851612  0.00339417 -0.00414159 -0.01603152 -0.00887723
   0.00248255 -0.01296592  0.017182    0.00319449 -0.00507374  0.00448601
  -0.02394983  0.0084449   0.00949429  0.02504289 -0.02140444  0.0107418
   0.00838331 -0.02480647 -0.02428207 -0.0160138   0.02824894  0.01226009
  0.06216211  0.08186184  0.03353764 -0.03365226 -0.007241   -0.04234415
  -0.01315051  0.00477698 -0.01668906  0.01104115  0.01727623 -0.00506586
  -0.00887768 -0.00298823  0.01367975  0.01109987 -0.03136241  0.00262271
  -0.01971656  0.00352495 -0.0393072   0.03762162 -0.01975997 -0.02628893
  0.0526389  -0.0340489  -0.05641201 -0.05048433  0.00076783 -0.03183679
   0.01511837  0.01789316 -0.00100195 -0.0008697   0.01780891  0.03052582
  -0.01400036  0.03616387 -0.02573406 -0.02393658  0.00978874  0.00240403
   0.0342705   0.02979979  0.01966961 -0.05347538  0.017879    0.04700186
 -0.00310684  0.0202077   0.01716712 -0.01590606 -0.01323781  0.01805387
   0.02872238 -0.0231551  -0.01153405  0.02209251  0.00671019 -0.0181426
   0.0183717   0.02263083 -0.00269199 -0.00109695 -0.00787898 -0.00959771
  -0.01897348  0.00869872 -0.01415408  0.02790346 -0.01918182 -0.01067717
 -0.0004328   0.01402464  0.02258967  0.02395023 -0.00679208  0.02378718
   0.01712662 -0.01532063  0.01583153 -0.02049366 -0.00166519  0.00310444
  -0.01124607  0.01159392  0.01984788 -0.00169127  0.00359143 -0.02754714
   0.02224247  0.00347246 -0.01158117 -0.02413767  0.01518755  0.00233091
 -0.00177516 -0.01135487 -0.0403842   0.02311064 -0.0213307   0.02017557
   0.02543219 -0.0108916  -0.01349957 -0.01318864  0.00194535  0.00949937
   0.02257317 -0.02071592  0.00326686  0.0169818  -0.01683898 -0.02914737
  -0.03821727  0.00204908 -0.06370676 -0.03570931  0.06533612  0.01685019
 -0.01314348 -0.00685797  0.01044194 -0.00527023  0.00472141  0.01601087
   0.00839606  0.00893929  0.01682728 -0.02145092  0.01631376 -0.02012128
  -0.0078892  -0.02103083  0.01971029  0.01562205  0.01517037  0.00466559
  -0.02474044  0.02616556 -0.00359334 -0.02783918  0.01834301 -0.01030674
 -0.05377878  0.04134259  0.1118025   0.0338656   0.0254929   0.02942168
   0.02375912 -0.01269373  0.01700133  0.01839609  0.01536334 -0.00945419
   0.01950434  0.00686991  0.00490836 -0.00235472  0.01388772  0.00256642
  -0.02575666  0.01182296  0.06894678 -0.05237003 -0.07274591 -0.05264241
  0.038646   -0.01467083 -0.11267221 -0.0426194   0.03074627 -0.01993541
   0.02374644 -0.00352949  0.00169385  0.00267221  0.03217304 -0.0093051
   0.02735648 -0.01268433 -0.001817   -0.0173956   0.01705627  0.02294557
  -0.0055816  -0.00076114 -0.00766928  0.01561713 -0.02509567  0.03800704
  0.01152747  0.02811739 -0.00971282  0.00686496  0.01918105  0.02141852
   0.02125649  0.01582541 -0.00816056 -0.01990416 -0.00210135 -0.02695988
  -0.02545566  0.00992403  0.01200943  0.02108364  0.02052066 -0.01525201
   0.00484     0.0222412   0.02722839  0.0213918   0.02650576  0.02533294
 -0.0131933   0.01195212  0.01835135  0.01567179  0.02241822 -0.02878886
   0.00104825  0.00309136 -0.01661346 -0.01373841  0.00718389 -0.02134629
  -0.02007619 -0.02859486 -0.01229435  0.02059466 -0.00800603 -0.00781086
  -0.00397782  0.00864169  0.0280633  -0.00378124 -0.00365498 -0.0087643 
 -0.13890536 -0.09758362 -0.05349361 -0.00913424 -0.02904977 -0.01700857
  -0.01780907 -0.02615127 -0.03739008 -0.03114069 -0.04341597 -0.00311732
   0.00357636 -0.0010148   0.0537176   0.01210132  0.05453068  0.08511423
   0.01618221  0.11751798  0.08533066  0.10281727 -0.00709871  0.03162081
  0.01699026  0.0176333  -0.00526919  0.00674149  0.00248176  0.03624375
  -0.02443155  0.03139434 -0.00375234  0.02318976 -0.01776272  0.02657696
   0.02521968  0.00097964 -0.0030283  -0.02640919  0.01064011 -0.00551534
  -0.00859077 -0.00176301 -0.01507601 -0.02584152 -0.0120245  -0.01529637
  0.07297169  0.03832562  0.11940695  0.05072626  0.04550037  0.06809503
   0.02291232  0.04672989  0.02483524 -0.00186976  0.03393648 -0.00157654
   0.00981691 -0.00470866  0.01626918 -0.0456796  -0.00929534 -0.03634017
  -0.06268369 -0.04814541 -0.11221863 -0.05347832 -0.1166824  -0.00389146
 -0.02286016 -0.02956394 -0.09703019  0.03654476 -0.0450881  -0.01154046
  -0.01363577 -0.0003715  -0.02072613 -0.02592745 -0.02756983 -0.0227205
  -0.01861755 -0.00767023  0.01844283 -0.02902599  0.02046717  0.02381791
   0.02949525  0.0095887   0.02334016  0.04877094  0.21448483  0.01458284
 -0.02220641  0.01439447 -0.01419047 -0.01070644  0.00145594 -0.02417685
  -0.00720276  0.00498806 -0.02624537  0.01058889 -0.02419875 -0.02143598
   0.02406856  0.00127979 -0.00183904 -0.00760688  0.02406085  0.00158999
  -0.00699058  0.01974105 -0.02126762  0.00212187 -0.02334123  0.01248817
  0.00954247  0.01784318  0.02205449 -0.00632388  0.0145857   0.0044747
  -0.02206252 -0.01981944 -0.02153827 -0.02610256  0.01825925 -0.01348033
   0.02571461  0.02749681 -0.00305814  0.01866497 -0.00929508 -0.02773953
  -0.00657306  0.01889726  0.01537002 -0.00015553  0.01900734  0.00797434
  0.01817863  0.04047358  0.12505887  0.03405486  0.06552809  0.08179829
   0.06551126  0.06195283  0.04567879  0.03614126  0.0265513  -0.00013062
  -0.02446463 -0.00514824 -0.01549398 -0.04567987 -0.06326939 -0.05033989
  -0.06585205 -0.05785133 -0.0873974  -0.02525028 -0.10481369 -0.05736764
 -0.03514491 -0.01395338  0.00427145  0.00694084 -0.01613092 -0.01499211
  -0.02874989  0.01633073  0.00600637  0.02754039 -0.02006938 -0.00123932
  -0.02466707  0.02140779  0.02662423 -0.01478073 -0.00269254  0.00962508
   0.03312712 -0.0035861   0.02721189  0.00810831 -0.01194577  0.0106577 
  0.04676555 -0.02619653 -0.20315252 -0.05280976 -0.08284734 -0.04352017
  -0.02777442 -0.01618147 -0.01492586 -0.01321106 -0.00490765  0.00184673
  -0.00424806  0.01053555  0.02720058  0.00967684  0.05320279  0.08102565
   0.02857196  0.03217448  0.03571784  0.00273094  0.04731144  0.0303945 
 -0.07080946 -0.03124081  0.02633044 -0.02368838 -0.02838296 -0.01300003
  -0.02395204 -0.03434912 -0.00712383 -0.01367424 -0.01368202  0.00522916
  -0.0257305   0.00720231  0.02899915  0.03775849  0.02809338  0.04992596
   0.01418423  0.07964279  0.07064257  0.06698278 -0.05157777  0.00984686
  0.01671283 -0.00896309 -0.02436281 -0.02660899  0.01866877  0.01535768
  -0.01462844 -0.01245169 -0.0284494   0.01928061 -0.00716563 -0.02583186
   0.02468639 -0.01694505 -0.01471645 -0.02622434 -0.02299071  0.02576917
   0.02533548  0.0134211   0.00799023 -0.01051399 -0.00575583  0.01568399
  0.00514058 -0.00259124  0.01716044  0.02780809 -0.02734894 -0.00672527
  -0.02677003 -0.0274932  -0.005324    0.00069261 -0.01239427 -0.02742529
  -0.01370399  0.02350417 -0.02251981  0.00217931  0.01111378  0.00699045
   0.0058456   0.0013223   0.02455451 -0.01770763 -0.02005311  0.02573816
 -0.03425518  0.10167517 -0.06392454  0.03939683 -0.00944743 -0.01255962
   0.05001613  0.01756621 -0.00556463  0.03431481  0.0194258   0.02696368
   0.02534421 -0.00445084 -0.01898669  0.02673764 -0.01943821  0.00918582
  -0.00560451 -0.0184476  -0.00567429 -0.03908789 -0.0212462   0.01046282
  0.01353659 -0.02109001  0.03494664 -0.01563221  0.03596423 -0.00949122
   0.0111372  -0.01297358 -0.01913074 -0.02086199 -0.00945369 -0.01534814
  -0.02926887  0.0083687  -0.00078375  0.0188009  -0.00483004 -0.00585048
  -0.01105557 -0.00779602  0.01203986  0.02749724  0.00525827 -0.02086344
 -0.02746478 -0.13852522 -0.08637056 -0.05642121 -0.04617584 -0.07443243
  -0.04800744 -0.07110689 -0.0810479  -0.08173351 -0.03951389 -0.03533981
  -0.00596189  0.0015338   0.01607965  0.03632997  0.04634975  0.10224361
   0.05840312  0.08896319  0.06585758  0.18889076  0.12853664  0.0328747 
 -0.08403073 -0.08874059  0.09541564  0.04029099  0.10083312  0.08807713
   0.10242319  0.06940655  0.03314574  0.05761086  0.02498174  0.02866658
   0.00661208  0.00676625  0.01461612 -0.0210551  -0.01958123 -0.02141146
  -0.00615072 -0.02056823 -0.03668838 -0.11903537 -0.14068724 -0.03212138
 -0.02589809 -0.01024384 -0.0001654   0.00495773 -0.02890821 -0.01828707
   0.01849805 -0.02735912 -0.00725747  0.02322517  0.01417276  0.01500462
  -0.02471594  0.00210099 -0.01163569  0.02048152  0.00096238  0.00695352
  -0.02822127  0.0200835  -0.01047147 -0.01315118 -0.01077096  0.0244429 
 -0.00048271  0.01068628  0.0178449  -0.00715117 -0.01182069  0.02751506
   0.00369098 -0.01254073  0.00381868 -0.01045026 -0.0024207   0.00504261
   0.01193714  0.01346727 -0.00520209  0.02588721 -0.01968224  0.00734382
   0.01060746  0.02220715 -0.00038225 -0.01279798  0.00898321 -0.02659416
  0.13714936  0.12746915 -0.02266477  0.00495764 -0.00059563  0.03365303
   0.01688173  0.00025216 -0.02820504  0.03949031 -0.02170331  0.0107589
  -0.00118584 -0.01145477 -0.0214123  -0.01790861 -0.00491429 -0.02629759
  -0.01372793  0.0002339  -0.09931575 -0.01187765 -0.05330586 -0.02311836
 -0.01200656 -0.02058869  0.01257855  0.02677855  0.00518849 -0.00577157
  -0.0231367  -0.01404618 -0.00044422  0.01272922 -0.00733341  0.01953446
  -0.0140241  -0.02152462 -0.01014968 -0.00690964 -0.02187598 -0.02202248
  -0.02209168  0.00889564 -0.02981676  0.01810813 -0.00888669 -0.00451293
  0.07655884  0.14107378  0.22772262  0.03187216  0.06049102  0.0628153
   0.01585044  0.01435675  0.02104012 -0.00517679  0.00644667 -0.02203942
  -0.03298499 -0.01436444  0.00195983 -0.01883643  0.02522487 -0.03498258
  -0.06008729 -0.06681813 -0.13000993 -0.17020305 -0.1690917   0.0130522 
  0.03818206  0.11574786  0.0663858   0.08298454 -0.00396899 -0.02954547
   0.00486318 -0.03762236  0.00105592 -0.01769673  0.01877565 -0.00574826
  -0.02133871 -0.01415373  0.00545759  0.01752028 -0.0079994  -0.04446601
  -0.02776753 -0.05437253 -0.05080468 -0.10451479  0.01164392  0.0373752 
  0.00890624 -0.02201142  0.01984944  0.02210071  0.01622053 -0.02054447
  -0.00829817  0.02803594 -0.02554278 -0.02428593 -0.00581547  0.02083757
   0.00401642 -0.00018038 -0.00459198  0.01144449 -0.02061689 -0.02406677
  -0.00456095  0.0170869   0.02422844 -0.00358638 -0.00628305 -0.00661729
 -0.00815601 -0.01486462 -0.00486104 -0.0017479   0.01752648 -0.02160209
  -0.0276935  -0.00343815  0.02853385 -0.00925772  0.02294417  0.01553315
   0.00053359  0.01396604 -0.01280902  0.01975984  0.02482121 -0.0152743
   0.00998047  0.02217987  0.02241421  0.0035654   0.00630255 -0.02298666
  0.01126949  0.0397857  -0.14151818 -0.09327089 -0.04421904 -0.0159408
  -0.06372045 -0.00066891 -0.02409373 -0.03839639 -0.02343277 -0.0410971
  -0.04827333  0.00686328 -0.01832325 -0.03686715 -0.00821693  0.02390509
   0.0260527   0.02229409  0.11336642  0.17861305  0.164899   -0.04583493
 -0.01572196  0.01743897  0.0073206  -0.0262242   0.01818896  0.02565016
  -0.01742828 -0.01612367 -0.01992665 -0.01249605  0.00535451  0.02474282
   0.00322763 -0.02623049 -0.02262109  0.01846449 -0.01137588  0.02585663
  -0.02231632  0.00288088 -0.03087303  0.01869628 -0.01932262 -0.01142619
 -0.04580505  0.00507505 -0.04504604 -0.0099884  -0.01276488  0.02173866
  -0.00881264 -0.022926    0.0272794   0.00231403 -0.00651349 -0.02847701
  -0.03440468 -0.0156766   0.01200629  0.00478027  0.00192848 -0.02836061
  -0.01018734  0.00480793  0.01785181 -0.01937386  0.15563893  0.05745314
  0.12223647  0.12159787  0.09149901 -0.00243953  0.02257539  0.02421197
   0.03322931  0.05676514  0.02402483 -0.003814    0.02613564  0.01489611
   0.00769695 -0.02584469  0.00471968  0.00929496 -0.01485811 -0.03210664
   0.00147703 -0.04524524 -0.11219916 -0.06504989 -0.14121737 -0.03811722
  0.01158379 -0.00969611  0.02645004  0.01631527  0.00693013 -0.01934991
   0.00754948  0.0133129  -0.02764834 -0.00428909 -0.02430067 -0.0075898
  -0.02678775  0.00189696  0.02279776 -0.0149143  -0.00479955 -0.0018679
   0.00445104  0.00949112 -0.02287395  0.01549782 -0.01887485  0.00474387
 -0.00409299  0.00849449 -0.00367211  0.00799192 -0.0187273   0.00624162
  -0.00041907  0.00708158 -0.01478313  0.001763   -0.01181693  0.02542317
   0.00385852 -0.00932342  0.02354429  0.00583963 -0.00346962 -0.00173025
   0.0175751   0.0006321  -0.02482802  0.02061921 -0.02431536  0.02200721
  0.02429308 -0.11634008 -0.17760709 -0.0815877  -0.04357634 -0.01007213
  -0.01509458 -0.00380654  0.00548812 -0.01528545 -0.0004096  -0.00937918
   0.01165808  0.02001302 -0.01595329  0.00972732 -0.04294906  0.02820464
  -0.00658834  0.11257005  0.06664555  0.05416494  0.16736864 -0.00535834
  0.01755465  0.00689077 -0.03152071 -0.03024147  0.01960702 -0.02430575
  -0.02461517  0.00239696  0.02190324 -0.01619318  0.01105132 -0.00725672
  -0.0222577   0.02020829 -0.00954541  0.02256943  0.00377428 -0.01348227
   0.02567426  0.0173158  -0.00345453  0.01450802  0.03144889  0.01226539
  0.04161496  0.0833711   0.0494644   0.04917835  0.00979873  0.04135605
   0.0336319  -0.01155278  0.02769448  0.03364211 -0.02552941 -0.00218659
   0.02070266 -0.04145702  0.02522159 -0.00295167  0.05369385 -0.0379793
  -0.01954602  0.0198345  -0.08578639 -0.1482702  -0.10651905  0.01577722
 -0.09947907 -0.00186723 -0.03009581 -0.02340816  0.0378925   0.04303546
  -0.00814997  0.02724417  0.01590235  0.01477443  0.01450779  0.00858402
   0.00959082  0.01175914 -0.04090125  0.00964214  0.01977944  0.02432286
   0.02590902 -0.01815294  0.08298078  0.11317694  0.00255951 -0.06990021
 -0.00379484 -0.02740606 -0.01156838 -0.00415256  0.0206049  -0.00842544
   0.02296203  0.00835506  0.02207391  0.02458418 -0.02738514 -0.01666905
  -0.00377097  0.0232689  -0.01586781 -0.01434631 -0.00722462 -0.00452955
   0.02818878  0.02749328 -0.01580525  0.00664451 -0.01005156  0.00963693
 -0.02499966 -0.02543434  0.0067707  -0.01386439  0.01291691 -0.00929427
   0.00319394  0.01897836 -0.00369639 -0.02557391 -0.0200083   0.00458418
   0.02747775  0.0070311   0.02546862  0.01425738  0.00391139  0.02882533
  -0.01687308 -0.01608232 -0.00268368  0.01131848  0.0155201  -0.02130495
 -0.04144628 -0.00960958 -0.1502959  -0.03068079 -0.00545144 -0.04312428
  -0.00982534  0.01296535 -0.00566231 -0.02070095  0.00178022  0.02032825
   0.02230658 -0.00168024 -0.00407167  0.0131139  -0.00916511  0.01014376
   0.01492167  0.02618224  0.02948134  0.07113491  0.08441192  0.0229241 
  0.03136221 -0.02270842 -0.02212579 -0.02754164  0.02648092  0.00895353
  -0.007029   -0.00642558  0.00749293 -0.00279057 -0.02951082 -0.00734498
   0.02422729  0.01813769  0.01336518 -0.01126497  0.02828598  0.01149559
  -0.00619833  0.0032806  -0.00108733  0.01103288  0.00870154  0.02642336
  0.10760619  0.03896275  0.01317815  0.01880363 -0.01387298  0.01115983
  -0.02070222  0.01711481  0.00814299 -0.01479135 -0.01926155 -0.02153455
  -0.02809101  0.01478841  0.00090281 -0.01278186 -0.02754682 -0.03704176
  -0.02907445 -0.01691988  0.00028579 -0.05273931 -0.02547561 -0.03322911
  0.05059732  0.00062427 -0.08190522 -0.05550808 -0.0067857  -0.0519808
   0.02374979  0.00188696 -0.01006021 -0.04155    -0.02166745 -0.0055213
   0.01488819 -0.03028513  0.01149019 -0.01110988  0.04232443  0.0390497
   0.01920142  0.0298148  -0.00232676 -0.05013661  0.02761324  0.05076798
 -0.01691482 -0.00443252  0.02567271 -0.00233371 -0.01567174  0.02199192
  -0.00886929 -0.0009049   0.00329911 -0.01184314 -0.02603072 -0.0155365
  -0.01394485  0.02104549 -0.00619932 -0.00514798  0.01725926 -0.00148709
  -0.01890658  0.00724568  0.00868108 -0.01646803 -0.02111463  0.00364201
 -0.02139707 -0.01620219  0.00423281  0.00589829 -0.01325725  0.00433329
  -0.02830422 -0.01490546  0.01974862  0.01357062 -0.01761545 -0.01889221
  -0.02497313  0.02059444  0.00568106 -0.0031395  -0.00663137  0.01549094
   0.02889817 -0.00942608 -0.00998996  0.0082418  -0.00962283 -0.01428246
  0.07979751  0.17330573  0.05969531 -0.02187616 -0.04196    -0.02639849
  -0.0550231  -0.04393926 -0.01080495 -0.04112608 -0.04130249 -0.02634066
  -0.00750041  0.0132281   0.01536428  0.01330862 -0.04788425 -0.03876416
   0.02669738  0.00863933 -0.00303804 -0.00552406  0.08774893 -0.04245289
  0.00433874 -0.03261492 -0.03920314 -0.00131573  0.00594014 -0.01017246
  -0.02241186 -0.02287297  0.01810999 -0.00822219 -0.02183307  0.01375946
   0.0179106   0.00931826  0.00815707  0.02117142 -0.00629193  0.01145009
  -0.02025013 -0.00923105 -0.01151678  0.03430011 -0.00225619  0.0210498 
  0.02902273 -0.08662376 -0.15495329 -0.01250673 -0.03858083  0.01388344
  -0.00521001 -0.0024317  -0.02521814  0.00721638  0.02248386  0.00848492
   0.00199446 -0.0228792   0.00430515  0.03273022  0.03803868  0.01441417
   0.01693457 -0.01796896 -0.01339692  0.11840778  0.01336776  0.05417067
 -0.01271503 -0.04038532 -0.03129069 -0.05188034 -0.03720414 -0.05801305
  -0.01742345 -0.04156677 -0.01934822 -0.03437497 -0.01344245 -0.00653259
   0.02325249 -0.0159006   0.0201358   0.03031881 -0.01413718  0.04500701
   0.02160681  0.01257374  0.03711323  0.09346438  0.12976289  0.01527108
  0.01115099  0.02769754 -0.00389202  0.02385224 -0.01227626 -0.02859254
   0.00585057  0.00215164 -0.02412776 -0.01829159  0.01303169  0.02676413
   0.00645106  0.00062814  0.01115001  0.02243976 -0.02236738 -0.01995225
   0.02520502 -0.00449887  0.00417741 -0.00601215 -0.01254759  0.01663071
 -0.01890241 -0.00236114  0.01880927  0.00685075 -0.00447143 -0.01160054
   0.00440932 -0.01124262 -0.00715576 -0.018428   -0.0014703   0.00521623
   0.01057822 -0.00322259  0.00647231 -0.01755437 -0.02390666 -0.0272936
   0.01885091 -0.02039957  0.0277434   0.02688722 -0.02760377 -0.01996403
  0.03383423 -0.07424685 -0.2136071  -0.03185578  0.01529624  0.06456313
   0.02509836  0.0249017   0.00800061  0.00871776  0.03596276  0.0113782
   0.00707318  0.00804932 -0.02281825 -0.00473107 -0.04992006 -0.01576454
   0.04752968  0.04182067  0.06068314  0.02387477  0.00050699 -0.01491138
 -0.00291663 -0.00703754  0.01644496 -0.02558678  0.01656314  0.00766107
  -0.00012304  0.02283922 -0.0020116  -0.02456713 -0.00592441  0.01367026
   0.00258955 -0.00087155  0.00943286  0.02056044  0.01055692 -0.02488935
   0.01360169  0.00877452  0.01604965 -0.01559421 -0.00974737  0.00610017
  0.02193354  0.00481131 -0.12331445 -0.08584878 -0.10160585 -0.036688
  -0.07874595 -0.07444739 -0.04059335 -0.046876   -0.05076727  0.00871639
  -0.01792965  0.0130485   0.01064056 -0.01586512  0.00452715  0.0434832
   0.0671539   0.09844431  0.10460767  0.23476224  0.18842617 -0.05936411
 -0.02012368  0.1571594   0.07547002 -0.00719716 -0.02200466 -0.00025318
  -0.04958616 -0.02344239  0.00346395 -0.01024184 -0.0212619   0.01528579
   0.00777264 -0.00620393  0.01929314  0.02215549 -0.04223672 -0.01763766
   0.0001445   0.03872062 -0.00683133 -0.03722649  0.01393553 -0.04500747
  0.02055289 -0.00344118  0.02742361  0.01806657  0.01601272  0.00137475
  -0.00808968 -0.00645014  0.02074376  0.00016245 -0.00246811 -0.00274203
  -0.01853233  0.00655853  0.00738698 -0.01390289 -0.0218899   0.01337864
   0.00212634  0.00691797  0.01992563  0.00551484 -0.01300727 -0.00931491
  0.02864498 -0.01895185  0.00089564 -0.02573461  0.0242049  -0.00847857
  -0.00444673  0.00937878  0.01042262  0.02161682 -0.00738553 -0.01135064
   0.02444022  0.00101066  0.02371874 -0.0263209  -0.01990852  0.01149683
   0.00781571 -0.0164368   0.0098646  -0.01126686  0.02035589  0.01299689
 -0.04051437 -0.04938218  0.18719013  0.05629485  0.02792313  0.06284446
   0.06922105  0.07740781  0.06582963  0.04358227  0.0669471   0.01156835
  -0.02275495 -0.00813371  0.00878377  0.02768333 -0.01754438 -0.00241933
  -0.03393917 -0.08610899 -0.12383618 -0.1693648  -0.16721846  0.0390463 
  0.02883928  0.02223822 -0.01969492  0.01295753  0.03217343  0.02261971
  -0.01289347  0.0209698   0.00664591 -0.02176309  0.01585139  0.01789789
   0.01919501 -0.00214948  0.02193028 -0.02489222  0.0008101  -0.0221711
   0.02242633  0.00261603  0.02155827  0.00883685  0.02317449  0.00724104
 -0.01648444  0.20429887  0.20463595 -0.01868609 -0.03884146 -0.02711415
   0.00785473  0.0030599   0.01805564 -0.03011164 -0.0549995  -0.02543285
  -0.05281869 -0.0512313   0.00937665  0.00853606 -0.00380791 -0.03038179
  -0.03060649 -0.03462402 -0.07970467  0.04599734  0.11608401 -0.04186647
  0.05037731 -0.03625138 -0.24471152 -0.04736152  0.0101731   0.04126104
  -0.02060324  0.04994587 -0.00617312  0.00929658 -0.0022629   0.00322911
  -0.0093297  -0.00574977 -0.00582372 -0.01220631  0.0015352   0.04191694
   0.03879682  0.03668978  0.0618348   0.01581958 -0.0479736   0.01506938
 -0.00524918  0.02444617 -0.00679062  0.00824081  0.00776085  0.01624428
  -0.01974442  0.01349358 -0.02217345  0.02555174 -0.02261932  0.02272904
   0.00740089 -0.01857119  0.02081813 -0.02285541  0.01932958  0.00895257
  -0.00960719  0.00359632 -0.00246887  0.00586366  0.02547331 -0.02479859
  0.018044   -0.00301823  0.02675183  0.01416657 -0.01865505  0.0058317
   0.02761737 -0.01790205  0.00720724  0.0278354  -0.0143144  -0.01944958
   0.02804325 -0.01034707  0.00825923 -0.0004138  -0.02694388 -0.02602548
  -0.01497814 -0.02559838 -0.02486797  0.02178747  0.01244483 -0.01409583
 -0.00675796 -0.02872054  0.04095839  0.0474706   0.00949236  0.04388434
   0.01721954 -0.01621712  0.01843698  0.03678759 -0.00479781 -0.01197813
   0.03219009 -0.00580549 -0.00286109 -0.01778116 -0.00922876  0.00902043
  -0.00032321 -0.04148427 -0.03059969 -0.05589418 -0.01368117  0.06164966
 -0.03176988 -0.00290824  0.03151064 -0.01700618 -0.01359027  0.02772195
  -0.00919412 -0.02488333 -0.01287045 -0.00711701  0.00090685  0.01352893
  -0.02507598 -0.01281296 -0.02405053  0.02744318  0.0264765   0.02290119
  -0.001148    0.02232329  0.01180318 -0.00474707 -0.02687777 -0.01888872
  0.09612715  0.07940821 -0.031225   -0.00257599 -0.01450448  0.00837824
  -0.02912314 -0.02186098  0.0136446  -0.01375175  0.00397197  0.00533562
  -0.01249265  0.01171302  0.01112143 -0.0108544   0.02547869 -0.00441674
  -0.01242959  0.01519247 -0.0245289  -0.16203046 -0.04043761 -0.0189555 
 -0.01488459 -0.03990639  0.11173826  0.04458325  0.03491499  0.04896056
   0.02950241  0.00684642  0.02628174 -0.00963573  0.00508698  0.00575837
  -0.03280658  0.00228322 -0.03029152  0.03374167 -0.0122     -0.03754016
  -0.02941261 -0.06901243 -0.03547984 -0.10430614 -0.08114544  0.04811301
  0.00787274  0.02165043 -0.00058672  0.0102811  -0.02603474  0.01727069
  -0.00383939  0.00113304  0.0164478  -0.00799193 -0.02674484 -0.02345604
  -0.00595613  0.00589043 -0.00711657  0.00405979 -0.00330416 -0.0158406
  -0.01701486  0.00709951  0.00222147 -0.01645147  0.01796382  0.01726517
 -0.00990902  0.02900265  0.00971824  0.01254008 -0.00242348  0.01687335
   0.01181846 -0.01359782 -0.00201104  0.02826929  0.0284302  -0.01583103
   0.0286016  -0.01356862 -0.00562862  0.01309113 -0.01176653 -0.01202238
   0.02515073  0.00599957  0.0165459  -0.01476431 -0.02436865  0.02086921
 -0.01400035 -0.0807977   0.01561178  0.00788742  0.03869495 -0.00485815
   0.04070895  0.0283959  -0.01522609  0.00032427  0.00584255 -0.01281923
   0.01871442  0.02493645  0.01319243 -0.01913904  0.01155604 -0.0161886
   0.00708087 -0.04327208  0.03655842 -0.01570018 -0.05290095  0.04706888
 -0.00357828  0.01542865 -0.00626267 -0.02598628  0.02510362  0.0275603
   0.01005888 -0.01208827 -0.01425333 -0.01805739 -0.00752415 -0.00817067
  -0.02570091 -0.02336093  0.00688502  0.01312919  0.02606385  0.02667062
  -0.00760008 -0.01058343 -0.00297344  0.00876619 -0.00395517  0.01154995
  0.01801726 -0.05456248 -0.00823039 -0.01306602 -0.05041873  0.00750909
   0.02225292 -0.03239707 -0.00137281 -0.00035372  0.0192894   0.01329944
   0.02616387 -0.00754024 -0.00222366  0.00449961  0.00243043  0.00926882
  -0.02505306 -0.00177372 -0.0335267  -0.03141493  0.04637879  0.05766334
 -0.02315589  0.00496659  0.0172606   0.02899478  0.02651417  0.00390431
  -0.01257217  0.01797523  0.00953014 -0.01292268 -0.00068131  0.00087676
   0.02249273  0.0037887   0.02809823 -0.00850375 -0.00483838 -0.00600661
   0.01602028 -0.01837008 -0.01539447 -0.02267616  0.11060594 -0.04056098
  0.00988924 -0.02419587 -0.00566047 -0.0097439  -0.00184207 -0.02446504
   0.00097273  0.01581007  0.01584076  0.02888197  0.02235208  0.00682834
  -0.01369225  0.0134746  -0.02283664  0.02673952  0.0280171  -0.00297008
  -0.00777006 -0.00754634  0.01051235 -0.01125508  0.01338185 -0.0170837 
  0.00768207  0.00218559 -0.01739778  0.02315653 -0.02026646  0.02249121
   0.02529202  0.00900539  0.02297476  0.02105825 -0.02552295  0.00255419
  -0.02205882 -0.00764017  0.0179581  -0.00003001 -0.00158829 -0.01548438
   0.00286012 -0.00089028 -0.01731554  0.00681822  0.00664453  0.00472892
 -0.02227688 -0.06602637 -0.08463799 -0.02225401  0.02796881  0.03265297
   0.00679331  0.00703043  0.01911499  0.02130997  0.01102075  0.02403379
  -0.01024766 -0.03156538 -0.03696881 -0.00865456  0.04413481  0.02623299
  -0.0068144  -0.00061513 -0.04590704  0.06966715  0.01740301 -0.00142255
 -0.00628853  0.02809968 -0.0160071  -0.00474844  0.00822036  0.02071565
  -0.002607   -0.01250571  0.01482894 -0.01159358  0.02487908  0.01521555
   0.0086998   0.00614698 -0.01380902  0.01739326 -0.00516288 -0.01129426
  -0.00201499  0.00364119  0.01688174  0.00791294 -0.00800895 -0.00232413
  0.01701391  0.05133191  0.02533777 -0.04412095 -0.00987913  0.02442854
  -0.00185547  0.03043651 -0.02443586  0.00943369 -0.01486634  0.04759461
   0.03241694 -0.00294726  0.00018051 -0.00417887  0.01287654  0.00323745
   0.02899394  0.03836318  0.00925272 -0.03761387 -0.10069801 -0.07593961
 -0.03752782 -0.13362353 -0.01805433 -0.01915479 -0.04360612 -0.01686914
   0.0197966  -0.00647939  0.0130552  -0.00833472 -0.00141412 -0.02102233
   0.01309651 -0.01533234 -0.00522347  0.00818251  0.04991298  0.02220151
   0.00801097  0.01977886  0.07025667 -0.01232107 -0.06343128  0.08042064
  0.00099952 -0.02807972  0.01601413 -0.01900335 -0.01331504  0.02067408
   0.00683773 -0.00168312 -0.01643106 -0.02608708  0.01169818 -0.01360473
   0.02377149 -0.02448054  0.01180368 -0.00074299  0.00451049 -0.02371333
  -0.01824032  0.01893367 -0.01378719  0.0196154   0.02363329 -0.00117052
  0.01378673  0.02857811  0.00807665 -0.01968008  0.01422654 -0.0115776
  -0.01080847  0.02242522 -0.02247985 -0.01997354 -0.02445056  0.003824
  -0.01716369  0.01425878 -0.02449591  0.02291227  0.02749548 -0.02710277
  -0.01098887  0.02825753 -0.02367852  0.02604279 -0.00205808 -0.00210411
  0.05448575  0.00922085 -0.0148868  -0.00202961  0.00261184 -0.00017299
   0.02759689  0.02039775 -0.00689929 -0.00739834 -0.03278228 -0.0265711
  -0.03079379 -0.00670017 -0.03723104  0.01029357 -0.00761625  0.00584448
  -0.00060491 -0.04480547 -0.03091432  0.04791629 -0.00939679 -0.02586757
 -0.00032953  0.02415435  0.00954729  0.00351604  0.01175868  0.02696134
  -0.00735963 -0.0104008  -0.02776601  0.01377657  0.02356656  0.00691928
   0.02167213  0.00106494  0.01969246 -0.02585888 -0.00544325  0.00445396
   0.02067958 -0.02984711 -0.00106169  0.02673984 -0.0040669   0.01782251
  0.08206809 -0.05645422 -0.06050647  0.01856139 -0.00332577  0.01186482
  -0.02278979 -0.00675465  0.04654004 -0.00727636  0.01820694  0.03646047
   0.03302891  0.01107717 -0.01246439 -0.0349769  -0.00897814 -0.01002795
  -0.04465518 -0.00686759 -0.08807835 -0.02596817  0.05483207  0.02963677
  0.02115289 -0.01660003 -0.01463277 -0.0038566  -0.01327207  0.03984292
  -0.01358181 -0.01043327 -0.01760603 -0.03375573  0.02035475  0.0096671
   0.01477704 -0.02471003 -0.01474221  0.01106588  0.00045923 -0.02372866
   0.02001767  0.00556085 -0.0185801   0.04429409  0.00890798 -0.02395235
  0.01444245  0.00470586 -0.02091991 -0.02356357  0.00696132 -0.00236471
  -0.01857166 -0.01833506  0.00617703 -0.01428496 -0.01714424 -0.00140935
  -0.01599161  0.01393928 -0.01038586  0.00037869 -0.00408492  0.01687062
  -0.01459399 -0.00616847  0.02390593  0.02873872  0.00244436  0.02614272
  0.00671809 -0.0015476  -0.00491977  0.00612901  0.01673003 -0.01050098
  -0.0099582  -0.01866097 -0.02444339 -0.00250369 -0.00336205  0.02701919
   0.01282565 -0.02701628  0.01338415  0.00546104  0.02025724 -0.01781509
  -0.02653221  0.01423719 -0.02120305 -0.01426182  0.01054593  0.01530687
 -0.04694525  0.02298306 -0.01016366  0.02425829 -0.01170525 -0.02527935
   0.01571254  0.01439319  0.00940171  0.03293937 -0.00737651 -0.0234202
   0.0176729   0.01791782 -0.01485912 -0.00919038 -0.04542215  0.00922854
   0.02621403  0.04456978  0.02470043  0.02641241 -0.00639148 -0.0120326 
  0.00428264  0.02550473  0.00147379  0.01351083 -0.03063382 -0.0146188
   0.02034874  0.00335011 -0.01665949  0.00062001 -0.025739    0.02504646
  -0.0290974  -0.01766563 -0.01703724 -0.001878    0.0198514   0.01898525
   0.02245006  0.01577384  0.00881348  0.00020483  0.03030267  0.02029912
  0.00707252  0.02286049 -0.12913091 -0.03706751 -0.0346606  -0.0710329
  -0.07187152 -0.05231732 -0.07118262 -0.02814624 -0.01809419 -0.02219328
  -0.04411548 -0.02750339 -0.01070647  0.04869359  0.08336812  0.0290904
   0.04299504  0.06396226  0.12717584  0.12575331  0.07923596  0.02216929
  0.08699605  0.02444156 -0.05723242 -0.01007801 -0.00957005  0.00928937
   0.00970663 -0.02558185 -0.02461258  0.02138866 -0.00963719 -0.00999205
   0.00408161 -0.01812449 -0.02375798 -0.03766878  0.0553312  -0.00029485
  -0.03989929 -0.06011587 -0.08503111  0.09057061  0.09586462  0.03117411
 -0.01168316 -0.02294937 -0.01758374  0.00891378  0.00223887 -0.01821304
  -0.01910881 -0.00434663 -0.00812863  0.02400845  0.01517942  0.01896235
  -0.02645159 -0.0119264  -0.02356813  0.0086806   0.01456785  0.01660922
   0.026967   -0.02383269  0.02766911  0.01911788  0.01853766 -0.0067256 
  0.00706828  0.00810526 -0.00239216 -0.01170818  0.00051627 -0.00670448
  -0.02003435  0.00607435 -0.013853    0.02793895  0.01211257  0.02544139
   0.0171665   0.02137376  0.01889488 -0.01520044 -0.01763252 -0.02700316
  -0.02134758 -0.02422094  0.02149114  0.02860535 -0.00010419  0.00157889
 -0.01269239  0.09636997  0.17034872  0.06775702  0.08193959  0.08505262
   0.07278312  0.06576384  0.01725635 -0.00692276  0.01192281 -0.03378954
  -0.0262477  -0.04548223 -0.05325451 -0.02803945 -0.08652641 -0.07616701
  -0.02738891 -0.05696353 -0.01038457 -0.0736277  -0.06206839 -0.07519989
  0.00680075 -0.00336851 -0.01658662 -0.00979883 -0.02679161 -0.00152866
   0.00432129  0.01021198 -0.01084541  0.02102271 -0.00679556  0.02130251
  -0.0128591  -0.00505199 -0.00205602 -0.01098981 -0.01390839  0.02069472
   0.01554616  0.01518945  0.01804959 -0.00534026  0.0171553  -0.01492825
  0.01901152 -0.00291773  0.12828521  0.0118087   0.00595159  0.05286712
   0.03148918 -0.0068093  -0.01160624  0.02304917  0.03277518  0.01822804
   0.01236377 -0.03463545 -0.02442365 -0.004953   -0.04069658 -0.03886649
  -0.02331882 -0.04008103 -0.08309916  0.02355453 -0.08159225 -0.01602204
 -0.01256117 -0.04563146 -0.08712909 -0.07087944 -0.04724103 -0.01364014
  -0.00355701 -0.01559859 -0.03894048 -0.0356371  -0.03283148 -0.03410026
  -0.02534436  0.01454828  0.00448501  0.05487427  0.07628199  0.09845014
   0.05734924  0.04936264  0.0970098   0.01427299 -0.07680554 -0.04665386
 -0.00042321  0.02503896 -0.00660574 -0.01324458 -0.01523201 -0.00063937
  -0.01793773  0.01767842 -0.0155637   0.00642537 -0.01228916  0.01433299
  -0.01626702  0.01225249 -0.02584402  0.00545223  0.02681918  0.00059347
  -0.01273621 -0.01799726 -0.00023903  0.00032976 -0.01910218  0.01717736
  0.0217242   0.00164661  0.01282997  0.02385711 -0.02579255  0.02091532
   0.01264374  0.00337439 -0.01591976 -0.00761592 -0.00926076 -0.01244013
  -0.01065794 -0.00491589 -0.02867545 -0.01301247  0.00193912 -0.02818165
   0.01354953  0.01592875  0.02131457  0.01204099 -0.01889515  0.01038366
  0.0232623   0.11679039 -0.01888482  0.10481143  0.02728872  0.05869224
   0.06149705  0.01014342  0.01782607  0.03526324  0.05056219  0.02139173
  -0.00171425  0.05736784  0.00637485  0.00158761 -0.09364811 -0.02809075
  -0.02405527 -0.08923092 -0.05979415 -0.13025498 -0.16540186 -0.00688673
  0.00599176  0.02049368  0.01099278 -0.01468307  0.00154507  0.02865037
   0.00845982 -0.0143038   0.01039129 -0.02125016 -0.00038704 -0.0200019
   0.02002552 -0.01994343  0.02387215 -0.01306516  0.00975615 -0.01523523
  -0.00308292  0.01749613 -0.00547563  0.0235046  -0.02411364 -0.01623514
 -0.10884339 -0.13485414 -0.03870068  0.03211058 -0.02897999  0.01477842
   0.02537403  0.00169501  0.01578122  0.04326316  0.02250496  0.00404092
   0.00861575 -0.00721239 -0.00100109 -0.00224546  0.00674042  0.04566747
   0.00670056  0.04075338  0.0161466  -0.0173744   0.01864916  0.08333821
  0.04225786  0.1092411   0.17823023  0.03292291  0.02852017  0.01570876
   0.00137614  0.02126766 -0.01042513 -0.00654914 -0.03156836 -0.02765944
   0.00533836 -0.00605342 -0.05894551 -0.02937835 -0.11842371 -0.06475905
  -0.05495303 -0.05369034 -0.07161612 -0.09402126  0.17459017  0.02756854
 -0.01355697 -0.00023024 -0.00522555  0.00751383 -0.00549319 -0.028446
  -0.01275817 -0.01389756 -0.01428489 -0.01376412  0.02539491  0.02638666
  -0.02617507 -0.00154643 -0.00000463  0.00358142  0.00924797 -0.01648844
   0.00370149  0.01953389 -0.01329867  0.00787087 -0.00274089 -0.01822021
  0.01610067  0.02256108  0.01488407 -0.0052148  -0.00398373  0.01176343
  -0.01165043  0.00280608 -0.01764575  0.02302211  0.02628171  0.00530706
   0.01458213  0.00225323 -0.01095982 -0.02196709  0.0230204  -0.01550284
   0.0174089  -0.0179792   0.00490995 -0.01906755 -0.01784492  0.01175024
 -0.08711864 -0.12972668 -0.10375714  0.00473865  0.03030878  0.04168892
   0.01902991  0.020304    0.00245003  0.00397134  0.02898937  0.03086489
   0.04131357  0.03409415  0.00319553  0.01905792  0.00309228  0.00560225
  -0.00453597  0.02748368  0.01185232  0.04772259 -0.06486873 -0.03277892
  0.00938024  0.03648395 -0.01355426 -0.00903255 -0.01790718 -0.00675194
   0.00753455  0.00310269  0.0101549  -0.02440265  0.00634254  0.01423628
   0.02313676  0.01400396 -0.00734765  0.01547501 -0.02700095 -0.02893053
  -0.03230876 -0.00820937 -0.00583116  0.02490538 -0.03396054  0.00743927
  0.13322936  0.10598673  0.09955774  0.03354198  0.00846759 -0.01736641
   0.01416709 -0.03590101 -0.00091167 -0.01597334  0.00113811 -0.03050631
  -0.0191043  -0.06020742 -0.01632113 -0.00591598 -0.03616047 -0.02486826
  -0.0136438   0.00655575 -0.054768   -0.01601919  0.04523939  0.0234235 
 -0.04777503  0.02948904 -0.15561272  0.00284462 -0.012333    0.04790189
  -0.00572438  0.01624347  0.0166466   0.03723606 -0.00504366  0.0087068
   0.02056033  0.03759157  0.02208504  0.00251346 -0.02815809  0.00638596
   0.01023621 -0.0115179  -0.04165576 -0.07739314  0.00752604  0.07860184
 -0.01943232 -0.00421264 -0.00702909  0.02711418  0.02318879  0.02345418
  -0.01500926 -0.02139946 -0.00926852 -0.01819276  0.0119872  -0.01983658
   0.02877839  0.0026383   0.02829146  0.02526972  0.01884653  0.00648936
  -0.00974371 -0.02672382  0.00449091 -0.01165755 -0.01937872  0.00397909
 -0.02862469 -0.00031625  0.0071533  -0.02542166 -0.01492458 -0.0223934
   0.01461429  0.01993739  0.00867237 -0.00839463 -0.02599801  0.00230171
  -0.02084074 -0.00350692 -0.02569882 -0.0033841  -0.02726476  0.01701268
   0.02563095 -0.01687743  0.01115415 -0.0075389  -0.01660392 -0.023039  
 -0.01819882  0.03562003  0.03792102 -0.03467062 -0.00464183 -0.0510198
  -0.00729558 -0.02646625 -0.03969458 -0.03374364  0.0353549   0.03197145
   0.00384591  0.01040637 -0.00177965 -0.00111404  0.0053686   0.03898057
   0.00922961  0.01543643  0.08413224 -0.00526066 -0.12387196 -0.06887266
  0.02287622 -0.04011607 -0.00190346 -0.00375992  0.00013478  0.02785594
   0.02309056  0.02447459 -0.00654424  0.00930052 -0.01893853  0.01756904
   0.01575293 -0.01467743  0.02331821  0.00187345 -0.00248471 -0.00846516
   0.02458934 -0.02189877 -0.00833255  0.00794931  0.02774707  0.00899364
  0.04241922  0.01659865  0.01232133 -0.01565225 -0.00206864 -0.00638977
   0.02300975 -0.00700714 -0.00086615  0.03782254  0.02498859 -0.01639262
  -0.02582463  0.00190617 -0.02398978  0.00691494  0.00227594  0.01665908
   0.01004091 -0.00187888 -0.0444783   0.08718177  0.01613158  0.00356196
 -0.05092547 -0.09955619 -0.0734432   0.0467392   0.01312262  0.03905052
   0.05432813  0.0100069   0.01418197  0.00365391  0.02780609  0.00526726
   0.02538946 -0.00197789 -0.01900342  0.01766242  0.0292486  -0.00242973
  -0.02720398  0.00568103 -0.00472859  0.0556824  -0.18044177  0.00047895
 -0.02711659  0.00341519  0.02669247  0.02328037  0.02454995  0.01562712
  -0.02318813  0.00235027 -0.00193393  0.01835793  0.02390242 -0.0213845
   0.00007048 -0.0147407   0.00122092 -0.02518674  0.02755887  0.01859843
   0.02569962 -0.01924326  0.00668271  0.02325375  0.00495659  0.01125482
  0.01896445 -0.01862642 -0.00178883 -0.02190091 -0.01034305  0.02156673
   0.00645592 -0.00686922 -0.01643055  0.02430565 -0.01945902 -0.01382872
   0.01238262 -0.00563011 -0.02842196 -0.00289203 -0.01019284  0.00080018
   0.00072967  0.01921498  0.0200193  -0.01829883  0.02754171 -0.00320737
  0.0281012  -0.0414401   0.0669077  -0.06454001 -0.04495449  0.00559327
  -0.00586288  0.01120564  0.01909217 -0.02474808 -0.02196441  0.0242829
   0.04107948 -0.01220488 -0.01515983 -0.01636084 -0.02571308  0.0393461
  -0.00442259 -0.01684758 -0.02934837  0.04433671  0.06219517 -0.0333298 
  0.01626604  0.0162202  -0.01120471  0.01444823  0.01722894  0.01015739
  -0.00937437  0.02715174  0.01813105  0.02388947 -0.0223105   0.00463543
  -0.01359396 -0.02580183 -0.01084045 -0.00465165 -0.01818489  0.01568461
  -0.0261863   0.01540898 -0.02335219 -0.00538972  0.01187764 -0.0177548 
  0.04486492  0.15920277 -0.06269298 -0.00778044  0.05623319  0.01666095
   0.04955373  0.01653307  0.03399039  0.03381399 -0.01043302 -0.00025197
  -0.04083675  0.00547125 -0.00676656  0.01558901  0.00340923 -0.01785779
  -0.0280513  -0.05891312 -0.01866546 -0.05227681 -0.05517804 -0.0407019 
  0.03417871 -0.01885437  0.06931613 -0.01778296 -0.0081507  -0.02517933
   0.0036443   0.00136285 -0.02453589 -0.02135039  0.00732354  0.0038201
  -0.00204494  0.0174548  -0.00687533 -0.02515432  0.01574145 -0.00155631
   0.04120721  0.02414768  0.01540605  0.0455633  -0.05283269 -0.07814834
  0.01034707  0.00334931 -0.00457022  0.02214791  0.02033047  0.01770205
   0.01746811 -0.02273602  0.00670794  0.0011867   0.02084212 -0.0091494
  -0.02539226 -0.0044601  -0.01052992 -0.00162475 -0.01099102  0.00250333
   0.02823953 -0.01294281 -0.01572438  0.02421849  0.01296148 -0.0062684 
 -0.02581647 -0.0122896  -0.01574828  0.00463692 -0.02257059 -0.0113679
   0.02212909 -0.01715869 -0.01305271 -0.01522899  0.02845136  0.01502442
   0.01551798 -0.02321121 -0.02198609 -0.00019775  0.02728721  0.0268056
   0.02660973  0.01067066  0.01718608 -0.01960877  0.00714125 -0.01729029
 -0.08385507  0.04497686  0.03627772 -0.01240384  0.02191196  0.01870228
  -0.02956475  0.02370875 -0.0241724  -0.00780775  0.00773258 -0.01561013
  -0.02175414  0.02970643  0.00504064 -0.02542005  0.00773957  0.02541209
   0.00736205 -0.0012761   0.02118049 -0.12872851 -0.00340579  0.04761935
  0.00395427 -0.01194223  0.00839116 -0.01215724 -0.00709648 -0.0295959
  -0.00030554  0.00634091  0.00301847 -0.00902375 -0.0154881  -0.02524721
   0.00556339 -0.00247526 -0.01933107  0.02965976  0.02501992  0.00281461
   0.00181547 -0.01037164 -0.01280037 -0.01491397  0.02577672 -0.0037275 
 -0.033367   -0.0577797  -0.14219369 -0.03641121 -0.06752465 -0.03758807
   0.00649629 -0.05192567 -0.0334041  -0.03733598 -0.01758085  0.00164836
   0.02106617 -0.00929347  0.01660649  0.0010792   0.05230346  0.0389159
   0.03296135 -0.0227142  -0.0094029   0.08175761  0.18082657  0.06069327
 -0.00112379 -0.07001508 -0.00946912 -0.05814519 -0.07410074 -0.01981171
  -0.03006626 -0.00677386 -0.0043777  -0.02127947 -0.02829388  0.02081549
  -0.01595932  0.02837983 -0.00128644  0.00944913 -0.00609396  0.01883216
   0.01661504  0.00930221  0.05463187  0.0764779   0.1026207  -0.04606949
  0.0208433   0.02576049  0.02369477  0.00905113  0.00084105 -0.02412669
   0.00096234 -0.00313831  0.01151976 -0.02181723 -0.00231206  0.01051818
  -0.00011573 -0.00654065 -0.00780856  0.00184187 -0.01013315  0.01632679
  -0.02188228 -0.00548499 -0.00029841  0.02826805 -0.01676324 -0.00351837
 -0.00188561 -0.01651042  0.02108605 -0.02096924 -0.02577908  0.0181053
   0.00711466  0.00377864  0.0055203   0.02126485  0.0087992  -0.02771972
  -0.00496012 -0.01351626  0.01366281  0.0108841  -0.00078334 -0.00027913
  -0.02176177 -0.02298915  0.0277505  -0.0202588   0.00287772  0.00751906
  0.06413687  0.16456813  0.09307534  0.03846873  0.00468559  0.00192295
  -0.00548595 -0.00907124 -0.03993192  0.01605901  0.02476339 -0.00191828
   0.01903896 -0.00753972 -0.00794088 -0.01324733  0.01883301 -0.02050888
  -0.01730651  0.00233639 -0.02587459 -0.13848871 -0.04257848  0.01882215
 -0.01667936 -0.01818859 -0.02917912 -0.01106635 -0.01903488  0.02260046
  -0.00667031 -0.02239229 -0.01854854 -0.00279193  0.00864102 -0.02081378
   0.01659212  0.02649882 -0.01752585  0.02769235  0.01094598  0.02423388
   0.01728991 -0.00179463  0.01684524 -0.01239249  0.02377166 -0.00546094
  0.10022976  0.09036981  0.0848466  -0.03924292 -0.04336051 -0.05244341
  -0.06238574 -0.05305792 -0.00937926 -0.01246075 -0.01560694 -0.00440775
  -0.03956533  0.00001907 -0.01445547 -0.00468471 -0.0595581  -0.02192338
  -0.00194603  0.03183149 -0.02581652 -0.00633685  0.13423355 -0.00968472
 -0.10656171  0.0234949   0.08904526  0.02018146 -0.01219659  0.01442122
  -0.00088563  0.02721361  0.01192236 -0.01263053  0.00534161  0.00230526
  -0.01420348 -0.02230574  0.0001474  -0.01962279  0.00842093 -0.0239255
  -0.0392228  -0.03275437 -0.0379126   0.04377183  0.02653142  0.0219882 
  0.02662605  0.016873    0.01475532  0.00391728 -0.027451   -0.02333746
   0.02875433  0.02053171  0.01073975  0.0157293   0.01383233  0.01062308
  -0.00646124 -0.02013702 -0.01578972  0.01966815 -0.02292043  0.02520084
   0.02767091  0.01027198  0.00157128  0.02138226 -0.01066058 -0.00025574
 -0.02271538 -0.00418068 -0.01276264  0.02689897  0.02308475 -0.02353062
  -0.00170052 -0.01751603  0.01523837  0.0180803   0.02367319  0.01445203
   0.01470475  0.02707013  0.02827835  0.02658693  0.00904571  0.01559963
   0.0260691  -0.00112012 -0.02681925 -0.02122309 -0.02041988 -0.00325671
  0.10285676 -0.01709774 -0.16201821  0.03111924  0.07327043  0.02356059
   0.03781815  0.05828309 -0.01793219  0.04876372  0.02583512  0.01211545
   0.02593866  0.02849299 -0.01512722 -0.01235051  0.01670741  0.02966399
   0.03143236  0.01434115  0.00574505 -0.19996843 -0.13301209  0.07727437
 -0.01060155  0.01976961 -0.01569145 -0.00682968  0.02862782  0.00629535
  -0.02157468 -0.00596436  0.02828518  0.01926383 -0.00565142 -0.00527931
   0.02569449 -0.02924764  0.02999774  0.02653479  0.00565718 -0.00230814
  -0.00246854 -0.02903844 -0.01197771  0.02031756 -0.03286263  0.00438815
  0.00469829 -0.07284333 -0.03755579  0.01544304  0.04856756  0.04059708
   0.01107285 -0.00970366  0.02854811  0.03024963 -0.02518028 -0.00059052
   0.00224887 -0.00854721 -0.02908995 -0.01651817 -0.03152484 -0.00677392
  -0.0163628   0.01438321 -0.03172325  0.01962254  0.01107437  0.02542233
  0.07444869  0.21500878  0.06688718 -0.02990619  0.00239927  0.00792103
  -0.01585829  0.01494594 -0.03948681 -0.01085077  0.00470868 -0.01945401
  -0.04142794 -0.00667911  0.00290874 -0.03126079  0.01348459  0.0064173
  -0.00475649  0.00583764 -0.08976391 -0.1753538  -0.00375617  0.00543206
  0.02572425  0.02288108  0.00463464 -0.00291337 -0.00121284  0.02191787
  -0.01907971 -0.00677399  0.00620109  0.02521928 -0.02638017 -0.01288971
   0.00522831 -0.00520182 -0.00183526 -0.00077265 -0.00997234 -0.01186933
   0.01925872  0.00522981 -0.00926156  0.02374874  0.0161536   0.00312445
 -0.02040224  0.01822073  0.02396863  0.00244405 -0.00648455  0.00330998
   0.02390523 -0.0080487  -0.0065285   0.01646048 -0.02883346 -0.0075694
  -0.01065012 -0.01383026  0.00681737 -0.01896706 -0.02084504 -0.00891366
   0.01184972 -0.02322441  0.02079979 -0.00826598  0.00228565 -0.00614314
 -0.00049577 -0.13832538 -0.03237359  0.04327428  0.05376239  0.02764568
   0.00216426  0.0293039   0.01740522  0.02478539  0.02105074  0.02592985
  -0.01682873 -0.00679094  0.03855032 -0.00317212 -0.0324349  -0.01806288
  -0.01940047  0.025836    0.03871448 -0.01616706 -0.16327934 -0.00275068
 -0.00870462 -0.02235181 -0.02957815  0.02576363 -0.00504225  0.03401051
  -0.00529102 -0.00710634  0.00592363  0.02019122 -0.01653487 -0.00169774
  -0.0159382   0.02378739 -0.01379155 -0.0040787   0.02146848  0.0240423
   0.0200628   0.01569896  0.01991256  0.01707867 -0.02819516  0.01970293
  0.04483909  0.10254187  0.09056086 -0.00182506  0.01813713  0.0234259
   0.01029776 -0.01190915  0.01303745  0.0054355   0.02089232 -0.00027083
  -0.02921611 -0.00781666 -0.01105591  0.00399692  0.03021538  0.00618063
   0.00530817  0.00937211 -0.00989001 -0.07727686 -0.04446855  0.02323389
  0.06408223 -0.06105966 -0.11721177  0.01027244  0.02394239  0.00101966
   0.03534706  0.01870689 -0.01218717  0.03388211 -0.00242209  0.05736541
   0.03873647  0.00400366 -0.02179278  0.03368365 -0.03818757 -0.01151595
   0.02025357 -0.00273949  0.00726572 -0.09444947  0.0106169   0.0306171 
  0.02614065  0.01678937  0.02136999 -0.02143473  0.00955807 -0.01987625
   0.01962988 -0.01678452 -0.00291283  0.02694391  0.02002471  0.00482948
   0.01686111  0.01121127  0.00274678 -0.00175072 -0.01863833  0.01677862
  -0.02148082 -0.02558992  0.026926    0.01193246  0.00961915 -0.01834931
 -0.00526744  0.02324711  0.01856082  0.00798356 -0.01588443 -0.00412047
   0.00011847 -0.00676871 -0.02000741 -0.00943153  0.01054306 -0.01515764
   0.02389979 -0.0137759   0.00319229 -0.00710153 -0.01037124 -0.00266943
   0.02753293 -0.00737477 -0.01709026  0.01683385  0.00462243  0.01830174
 -0.06773797 -0.06150727 -0.04160512 -0.0177409   0.00233074 -0.00165293
   0.02633557 -0.01544425 -0.00332086  0.01252862  0.01445896 -0.00375816
  -0.0114484   0.00319054  0.02648048  0.016061    0.03113078  0.033249
  -0.01470725  0.027406    0.04261366  0.06480226 -0.06196032  0.04505149
 -0.02553784 -0.02593874  0.02130952  0.01144296 -0.02199338  0.00722503
  -0.02751296  0.02598557  0.02540814 -0.00228718  0.01627819  0.00852442
   0.01640965 -0.01299343 -0.00340905 -0.00233533  0.01916759  0.02134148
  -0.02519958 -0.0004724  -0.02124635  0.02336136 -0.01454329  0.02345054
  0.05645205  0.06653881  0.00048989  0.02380987 -0.02231254 -0.03370224
  -0.0192872  -0.01741645  0.0171703  -0.02252513 -0.04065403  0.01947399
   0.003679   -0.00475208 -0.0121764  -0.02118465 -0.0514534  -0.02265293
   0.02277111 -0.00947915  0.0529776  -0.01193156  0.01777696  0.0022314 
  0.06035043  0.04164105  0.02275768  0.0390774   0.00606774  0.0096525
   0.00579073  0.02171455  0.02783553  0.00821798  0.02679623 -0.02696125
   0.00501363 -0.03446279 -0.00144564 -0.03058857 -0.0011224  -0.02920455
   0.02627901  0.02290412 -0.01884627 -0.10179041 -0.10915237 -0.04112471
 -0.02752339  0.00567313 -0.00379741  0.0238497   0.00360881 -0.02401181
  -0.00445277  0.00961702  0.00693791 -0.00470267  0.0189384  -0.02806924
   0.00154176 -0.02348464 -0.0148493   0.01701463  0.01824682  0.00238668
  -0.0272961  -0.00606715  0.0075433  -0.01544522  0.00399691 -0.00407677
  0.02611115  0.00788937 -0.00723503  0.02757547  0.00605298 -0.00449085
   0.00014776  0.01236501 -0.00945081 -0.01353095 -0.015664   -0.01207509
   0.00377794  0.02218539 -0.02154519 -0.01527771  0.00777014  0.00591571
   0.00816224  0.01829861 -0.01843763 -0.00820898 -0.01936998  0.00813427
 -0.05277976 -0.0460838  -0.13166448 -0.06473693  0.02481343  0.00502707
   0.00045407  0.00501743  0.02809641  0.01683844 -0.02082346  0.02309113
   0.04085038  0.02537132  0.01624799  0.03412626  0.0359985   0.0256632
   0.01704628  0.03877652  0.06475245  0.02851892 -0.14820112  0.02554963
 -0.0002232  -0.01798606  0.0034345  -0.00521719 -0.02575005  0.02600171
   0.00821021  0.02777292  0.01365795 -0.01018604 -0.02134645  0.00183344
  -0.02706472 -0.0103415   0.00970579 -0.02574254  0.01759762 -0.00007832
   0.01415215  0.02215638 -0.00470638 -0.00892197  0.02039375  0.02307575
  0.05558321 -0.00864221  0.04913768 -0.01958386  0.01637762  0.0184099
   0.01740284 -0.01128295 -0.00295297  0.02646111  0.03124931 -0.01531794
   0.0042954   0.01718676 -0.00038523  0.01784331 -0.01221121 -0.00268224
  -0.02757642 -0.04251311 -0.03592901 -0.03037711  0.06425482  0.03496124
 -0.08375953 -0.11696751 -0.15095076 -0.06647051 -0.02819872 -0.02631215
  -0.00177589  0.00595297  0.00113828  0.02631887  0.01505434  0.03905565
   0.0374646   0.03860009  0.00699867  0.03175772  0.03757778  0.05496319
   0.04382377  0.07764907  0.08726939  0.04864322 -0.08346618  0.01420723
  0.00716172 -0.00491868 -0.00643286 -0.00105299 -0.01458319 -0.02227163
   0.01678143  0.00104077 -0.00899448  0.02028853  0.01195054  0.00995601
   0.00641505  0.02226644  0.02782526 -0.02012199  0.01738924 -0.00145528
  -0.01708099 -0.027394    0.01048161 -0.00365999  0.01390958 -0.0003078 
 -0.02607295  0.0159998   0.02659146 -0.02114502 -0.02666681  0.0258259
  -0.01088283  0.00393595 -0.01385743  0.01640755 -0.00224102 -0.02743674
   0.01872651 -0.00689656 -0.02830199  0.01100012 -0.00260938  0.01942078
   0.02639453  0.00618758 -0.02182329  0.01855322  0.02218459 -0.02152576
 -0.01398648  0.04756989 -0.00285593  0.05044783 -0.00137545  0.00385575
   0.0243554   0.0179789   0.00318353 -0.01530848  0.00068912  0.00372165
  -0.02652529 -0.00548413 -0.00608895 -0.0063357  -0.00689561 -0.01405705
  -0.01887051 -0.01010089 -0.09124053  0.00982057  0.04528492  0.04745719
 -0.00063746 -0.02784793 -0.00907184 -0.02193582  0.0022338   0.02336146
  -0.01262614 -0.00985311 -0.01164776 -0.00437454  0.0224827   0.00084209
   0.02671042  0.01064267 -0.01648542 -0.01864291  0.01347793  0.02694849
   0.00341972 -0.01946572  0.03852771 -0.00236513  0.00191733 -0.0099979 
 -0.07196125 -0.19268624 -0.06669509 -0.0045967  -0.0154492   0.00451509
  -0.03854251 -0.03884481 -0.00375795 -0.03663963  0.01769855 -0.01819807
   0.02828792  0.04261201  0.02556056  0.00655605  0.04237011  0.05426419
   0.04098315  0.06991554  0.05762349  0.02592715  0.04853193 -0.02183531
  0.06368452  0.04728259  0.00837811  0.07052296  0.04691917  0.02868436
   0.01207081  0.02540511  0.03516937  0.01578174  0.00771381 -0.02012494
   0.01532602  0.01480968 -0.00457558 -0.01013652 -0.04216494 -0.05826246
   0.00203272 -0.03728882  0.00157911  0.00180379 -0.17958117  0.0490272 
 -0.02789066 -0.028341    0.00781888 -0.01676196 -0.01176611 -0.01405844
  -0.01567105  0.00624336 -0.02264744 -0.00655936 -0.01559456  0.0156982
  -0.0146038   0.00838468  0.027708    0.00337027 -0.02043475  0.02589824
   0.00505293  0.00476676  0.01310048 -0.01396349 -0.02576025  0.00275626
  0.00478766 -0.00770721  0.01452453  0.00643833 -0.02892112 -0.00320071
   0.01325601  0.00187971 -0.02114489  0.00084356  0.02665266  0.02580333
   0.01982441 -0.01605918  0.01499888 -0.00311573 -0.00370606 -0.01583041
  -0.01727166  0.02599852 -0.00500136 -0.01471578 -0.02184295 -0.02119   
 -0.04855585 -0.0795371   0.03218796 -0.04472565 -0.03826602  0.01930689
  -0.01332552 -0.02643811 -0.02666185  0.0031253  -0.01024691 -0.0114492
   0.01130673 -0.00298571  0.04538898  0.03245276  0.03616898  0.02650893
   0.03057352 -0.00261954  0.02913412  0.01183979  0.01110744  0.01203691
  0.02896101 -0.02503297 -0.02293474  0.01762495 -0.00931336 -0.00865691
  -0.01111625  0.0033539  -0.01539833 -0.01537088 -0.02564514 -0.02166627
   0.01679879 -0.01796009  0.02227251  0.02493794 -0.03052513 -0.03277929
   0.0248172   0.00859688  0.00211367 -0.00770564  0.01286598  0.00948653
  0.06412867  0.0749047   0.04627338  0.03750394 -0.01128907  0.02246088
  -0.00978208 -0.00996233 -0.04202002  0.01534716  0.00633796 -0.0117107
  -0.0082738  -0.0094052  -0.03650663 -0.00016584 -0.02737455 -0.00747362
  -0.02237774 -0.03051058 -0.05676672 -0.02408097 -0.04011033  0.0041103 
  0.00059264  0.11437079 -0.03985545 -0.00043787  0.03405901  0.02492709
  -0.01598337  0.01062899 -0.00066686  0.02441895 -0.01910483  0.00859901
   0.01302666  0.01690952  0.01908418 -0.00203906 -0.00251217 -0.04258394
   0.01136768  0.02329875 -0.05039571  0.00672044  0.0284584  -0.04448619
  0.00437069 -0.01730392  0.02312641 -0.01552831 -0.00968534 -0.01185019
   0.02673104  0.02084003 -0.00590812  0.02493544  0.02666882  0.01530644
   0.01300157 -0.00466429  0.02270379 -0.01821528 -0.0212291   0.01299954
   0.01347974  0.0215191  -0.02308321  0.02491779 -0.02089755  0.02865323
 -0.0234846  -0.01213825 -0.01589862  0.00179621 -0.005388   -0.01503474
  -0.0239966   0.00112438 -0.00920579 -0.01437078  0.01817242 -0.00920188
   0.00278699 -0.02673742  0.00958569  0.02439269 -0.02150261 -0.01922785
   0.00653017 -0.01078757 -0.00926368 -0.0013109  -0.00573823 -0.02492689
 -0.04473457 -0.04056595  0.02073148 -0.07715784 -0.01809454 -0.00061278
   0.01676577  0.01556872  0.02186959  0.00098762  0.00232862  0.03921171
  -0.01349309  0.01528198 -0.00014133  0.01454804 -0.00439508 -0.00498652
  -0.00725057  0.02146595 -0.02799925 -0.04433084  0.05970815  0.08206324
  0.00925521 -0.01113194  0.00417274 -0.03445123 -0.00982714  0.00586387
  -0.01590306 -0.01711815 -0.00077536 -0.02791895 -0.00781902  0.00293643
  -0.01224075 -0.0102192  -0.02161671 -0.01728183 -0.02465109  0.00899193
   0.0046315  -0.00676905 -0.01223778  0.04108164 -0.01954087  0.01725729
  0.02065992 -0.03123052  0.02268015  0.03522835  0.05111839  0.00733522
   0.02789765  0.02104082 -0.01850574  0.01301457 -0.01150198 -0.006782
   0.00299363 -0.01094722 -0.00844935  0.01287362  0.00682591  0.00544291
  -0.03055254 -0.06384497 -0.04205747  0.07906153 -0.0555989  -0.00551843
 -0.02198767 -0.01050577  0.09671555  0.02706111  0.01408205  0.05373986
  -0.00041057  0.00937372 -0.01308503  0.01577881  0.01794988  0.01380101
   0.02279073 -0.01055979  0.02211345  0.00496005 -0.02126618  0.01979536
   0.01735741 -0.0162366   0.01392608 -0.18103981 -0.14495294 -0.04067709
  0.01291521 -0.01728608 -0.00096671 -0.01935     0.01869152 -0.02247556
   0.00507572  0.01608198  0.02349571  0.01409362 -0.01871472  0.01783754
  -0.02049761 -0.00384447  0.0277341  -0.00063739 -0.00892756  0.01960573
  -0.0067139  -0.001751    0.01578518 -0.01182273 -0.00597151 -0.00020489
 -0.00858889 -0.00064363  0.01594174 -0.01036505  0.01648549  0.01105291
   0.015833    0.01368731 -0.01318487  0.0016073  -0.0153617  -0.01239428
   0.00363055  0.02177821  0.00614263  0.00585386  0.00999953 -0.00632837
  -0.01128429 -0.02054528  0.00048106  0.00229296  0.01906112 -0.02559165
 -0.0293457  -0.06769874  0.00455173 -0.02176754 -0.03254378 -0.03567192
  -0.01152624  0.01366082  0.01613356 -0.04168296 -0.02854882 -0.00643405
  -0.00304191  0.0114882   0.00197639 -0.0001052   0.0255469  -0.00473606
  -0.00847375 -0.01439058  0.0079249   0.08811003  0.13975129  0.04846815
 -0.02173196  0.01002496 -0.02264257 -0.01599076  0.00374572  0.00593165
  -0.00424342 -0.01280328  0.01758875 -0.01619149  0.01997989 -0.00372798
   0.01965307 -0.02199479  0.00236235  0.02201699 -0.00045453 -0.02006778
  -0.00256421  0.02213393  0.01399444  0.00393074 -0.02102725 -0.01688273
  0.0592488   0.02864286 -0.01464969 -0.00188392 -0.0014309   0.01328875
  -0.01311201 -0.00960936  0.00064868 -0.02661558 -0.00813985 -0.02851126
   0.00955206  0.00545074  0.01634023  0.00645275  0.0135539  -0.01330154
   0.00218236 -0.01601516  0.0375818  -0.0077062   0.00724932 -0.03970592
 -0.09446167 -0.10395171 -0.0149734  -0.02843506 -0.01451865 -0.00499629
   0.02781327  0.01450186  0.00760113 -0.01432931  0.00839603 -0.0149873
   0.0352584   0.01608651 -0.00362763 -0.00486659  0.01108039  0.00850165
  -0.01442053  0.02984445  0.02099368  0.04804957  0.08335671  0.03703252
  0.02105903  0.0230653  -0.01460234  0.00299557 -0.01186094  0.00051845
  -0.02737105 -0.00308606 -0.00479259 -0.00529332 -0.0193017  -0.01127063
   0.00333775 -0.00039447 -0.00333377  0.02752651 -0.01623012  0.02200172
  -0.00434646 -0.02484705  0.02317886 -0.01175897 -0.02802323  0.00402894
  0.00331294 -0.02334274  0.02016348  0.00689651  0.0108889  -0.01487701
  -0.01632536  0.006191    0.00491668 -0.02667931 -0.00489273 -0.00969491
  -0.00216854 -0.01274915 -0.0077482  -0.00051887 -0.02195237 -0.02769724
  -0.01906673  0.00890311 -0.00592413 -0.02134768  0.01880052 -0.00754307
  0.02265474  0.00526459 -0.00386655 -0.05513201 -0.03519603 -0.03328339
  -0.00847296  0.02817485  0.02177212 -0.01746277 -0.02928787 -0.02769083
  -0.02693744  0.03900122 -0.02248796 -0.0029086   0.02782924 -0.00837154
   0.00266582 -0.03552144  0.00709599  0.10376623 -0.06180707  0.04120648
 -0.0155248   0.02599269  0.00832433 -0.01039848  0.00894855  0.01288523
  -0.00430096 -0.0223456  -0.0073609   0.02221258  0.00876166 -0.03204256
   0.02295426 -0.00250605 -0.01309851 -0.00472547 -0.0279546  -0.00608753
  -0.00684875 -0.02538098  0.02798336  0.02703426 -0.00533307 -0.0016938 
  0.00277954  0.11593018  0.03637952 -0.02889753 -0.01383694 -0.0043598
  -0.02551327  0.00879046 -0.00856139 -0.01359749  0.00306424 -0.02741672
  -0.00235219  0.00009957 -0.04788992 -0.037179   -0.08721276 -0.0540706
   0.01469828  0.03250806 -0.00478439 -0.04072237  0.1491404   0.03142134
  0.00551611  0.03139607 -0.13741341 -0.09253049 -0.05319876 -0.06158878
  -0.0039801   0.01568674 -0.0340234  -0.02969839  0.00588734 -0.04333404
  -0.03008704 -0.00745487 -0.02786143  0.00814216  0.00870587 -0.01559909
   0.02082431  0.03409709  0.03841084  0.09687105  0.11255232  0.05150447
 -0.01176778  0.02420503 -0.00896131 -0.0167592  -0.02574543 -0.00303475
   0.02230977 -0.01265353  0.00291015  0.02763166 -0.02747997  0.01677028
   0.00939647 -0.01368339 -0.01727708 -0.00226709  0.00639155 -0.02205295
   0.02682265 -0.00646908 -0.01588015  0.00451326  0.01327374 -0.00894878
  0.01861563  0.00617679 -0.02500545  0.00847903 -0.0045152   0.00706468
  -0.00999325  0.01548964 -0.00207273  0.00178071  0.00660827  0.00497744
  -0.00056719  0.02878575  0.01605319  0.02515432  0.00612549  0.0033918
   0.01225196  0.00957064  0.00986431 -0.0233326   0.02893426 -0.00228697
 -0.05006304 -0.15566638  0.07903133  0.03351588 -0.01016098  0.03148058
  -0.00410026 -0.00341823 -0.00447264  0.00574032 -0.01721511  0.03164718
   0.03260023  0.03974216  0.03927118 -0.00619943 -0.003691   -0.01886627
  -0.00013496  0.01414568  0.01044437  0.05097883 -0.00225154  0.00036798
 -0.01371225  0.01315056  0.0083602  -0.00650421 -0.01530691  0.01364384
  -0.02459058 -0.01034978 -0.02307075 -0.01382513  0.02257688 -0.0270247
   0.02056838 -0.01687101 -0.02479718 -0.01885233 -0.02420733 -0.00315714
  -0.02398359 -0.01236343 -0.00890522 -0.02908585 -0.0025833   0.00473455
 -0.04632898 -0.05395657 -0.13097559 -0.0101123   0.02987221  0.04069297
   0.01593266  0.05058666  0.00113614  0.02135326 -0.00418912  0.02983546
   0.04157089  0.03140412 -0.02317375  0.02314839 -0.0249288   0.00837512
   0.02448251  0.03309705  0.01995619  0.03128933 -0.0208823   0.08915558
  0.04096408  0.03413342  0.05160124  0.01729971 -0.00964468  0.00868636
   0.02485793 -0.00462099  0.01467797 -0.02074297  0.01523939  0.01537369
  -0.00964255  0.01931607 -0.00582536  0.04602157 -0.01499419 -0.00964784
  -0.0130897  -0.04494498  0.01697437  0.01764891 -0.08936033 -0.01164211
 -0.00337131  0.00188151 -0.01314971 -0.01246943 -0.02413284 -0.01480674
  -0.00423073  0.00079312 -0.00182302  0.00296294  0.02558555 -0.02084545
  -0.00252748 -0.01879007 -0.01478737  0.01560484 -0.02065127 -0.00977997
   0.00496938  0.02391526 -0.00367365 -0.02068752  0.02445646  0.0226558 
  0.01675265  0.02203907  0.01714879  0.01546507  0.01880498  0.01925086
   0.01427498 -0.02457576 -0.02274714  0.02647272  0.01450936 -0.02823781
  -0.01672783  0.02047906  0.0049963   0.01032546 -0.00225915  0.0088362
   0.0288756  -0.00910609 -0.00095931 -0.01665005 -0.02446765 -0.00275972
  0.02729312 -0.03691838  0.11426669  0.01656369 -0.02133394 -0.03699317
   0.01694905 -0.03064294 -0.0186083   0.00621249  0.01528409  0.01999067
  -0.01423773  0.01975442 -0.00755808 -0.01010109  0.0252264   0.01017197
   0.0174342  -0.00354808  0.00384548 -0.06430006 -0.03156659  0.04292888
  0.01660132  0.00305196 -0.00448846 -0.00876548 -0.01782778  0.01687175
  -0.01498703  0.01740313  0.00870084 -0.00427013  0.01895712  0.00203781
  -0.00096081  0.01891067 -0.01594938 -0.0013028   0.00499735 -0.00224285
   0.02120521  0.00696681 -0.01886834  0.03053239 -0.02360195 -0.02657343
  0.03005476  0.12703553 -0.04626751  0.05934704  0.00119692 -0.03080507
  -0.00448402  0.01620703  0.03232935  0.00782528 -0.01497234  0.0254624
   0.00343401  0.02232996 -0.02638926  0.00035881 -0.01236513  0.02174443
  -0.00593532 -0.02283247 -0.01935408  0.09569329 -0.14789438 -0.0319692 
 -0.03841808 -0.04643544 -0.00959572  0.02264329  0.02150257  0.05508857
  -0.02021004  0.01863351  0.01221205  0.02832746 -0.01044217 -0.02151297
  -0.02023983 -0.0135616   0.03235894  0.01984061 -0.01001375  0.02313687
   0.02003075 -0.03978087  0.00179931 -0.0059936   0.07863066  0.00282266
 -0.02834332 -0.01124015 -0.01828272  0.02837821  0.02711913 -0.01561349
   0.02043794  0.00706203  0.00937307 -0.0121012  -0.02585237  0.02450517
  -0.01574923  0.02219687 -0.01072114  0.0185435  -0.02327833  0.01361829
   0.01638273  0.02192618  0.01729989  0.0101154  -0.02105355 -0.01495653
  0.01961917 -0.02488368 -0.02696029 -0.0282251  -0.00586253 -0.00567598
   0.02393963 -0.02896391 -0.01801708 -0.02119393 -0.02122778 -0.0088665
  -0.01331593 -0.000231    0.00074302  0.00342672 -0.02429449 -0.00680118
  -0.00347754  0.0173633  -0.0019184   0.00993671  0.02344866  0.02011716
 -0.01255647 -0.16245866  0.09739517  0.02760389 -0.02437718  0.01722819
   0.02251397 -0.01323318  0.0126793   0.04123671  0.00408921 -0.02319108
  -0.00198921  0.0217753   0.0146673   0.03146543 -0.0234641   0.00867607
   0.00036039 -0.02261607 -0.01084458  0.07801539 -0.10184283 -0.00170666
  0.03468463 -0.01765901 -0.01495383 -0.00459744  0.0095785  -0.00569691
  -0.00524684 -0.01954917  0.01243345 -0.00288794 -0.00079168  0.02559037
  -0.00263842  0.0215225  -0.00778017  0.00774025  0.0099798   0.02186621
   0.02368965 -0.01415457 -0.00412129  0.01386207 -0.02848041 -0.00057946
  0.04413515 -0.0692398  -0.02530787 -0.03929    -0.02248886 -0.01467688
  -0.00667597 -0.05046408 -0.00664311 -0.04070666 -0.01917336  0.00952599
   0.00735467  0.03433753  0.0413392   0.02665875 -0.00729668  0.00468414
   0.02747505  0.04323948  0.00015256  0.09147557  0.09221642  0.00062716
 -0.01743274  0.09740207  0.0793783  -0.03111439 -0.04161395 -0.06758016
  -0.02230727  0.00503752 -0.01553077 -0.00977395 -0.02791551  0.00340722
   0.00695993 -0.03908265 -0.01344682 -0.032154   -0.00798771 -0.04769892
  -0.0346551  -0.01746171 -0.03095805 -0.08992663  0.13914303  0.03077025
 -0.0147261   0.02422785 -0.02182257  0.02501404 -0.00985047  0.00767174
   0.01189709 -0.02557104  0.00578683  0.02114642  0.01480911 -0.00199275
  -0.01927501 -0.02687171 -0.00939358  0.01126177  0.01354513  0.02424256
   0.02809232 -0.01809901  0.01244556 -0.02668658  0.02875198 -0.01162855
 -0.00848603 -0.01869465  0.02018234  0.02681654 -0.01714899  0.02314267
  -0.01754608 -0.00338304 -0.0270152   0.00992063  0.02136764  0.00083194
   0.01205487  0.01236741  0.01502054 -0.0084942  -0.00358454 -0.00047951
   0.00055516 -0.01274666  0.0233076   0.02752821 -0.01658706 -0.00156466
 -0.01738908 -0.0028443   0.12231108  0.02507821  0.01504079 -0.00603153
  -0.00188147  0.01675459  0.01060022  0.04373428 -0.0142072   0.02087812
  -0.02206052  0.04902977  0.00166059  0.01109705  0.00776133 -0.01211815
  -0.01175225  0.0038865   0.03881398 -0.07757174 -0.17618564 -0.03606607
 -0.02834022 -0.00595961 -0.02146614  0.01197024  0.02498564 -0.01304073
   0.02917228  0.02078874  0.02270225  0.02779212  0.02544267 -0.01314266
   0.02543865  0.00406868  0.00047198 -0.00849104 -0.02475451 -0.01618598
  -0.00834194  0.02308528 -0.02092383 -0.0063734  -0.02586421 -0.03344221
 -0.01210577  0.06903081  0.00479602 -0.01497323 -0.02387981 -0.01429121
  -0.00725843 -0.00708288  0.01038434  0.01167411 -0.00959716  0.01560929
  -0.02264777 -0.03243471 -0.02918671  0.00103504 -0.01832856 -0.01141636
  -0.0068829   0.03167316  0.03325234 -0.00168136  0.04114893 -0.04568074
  0.09211917 -0.16589545  0.01276277  0.0083808  -0.00923169  0.02612242
  -0.00170599 -0.01046287 -0.01899263 -0.00450087  0.01913509  0.02078642
   0.01541781  0.02396391 -0.00708589  0.02355275 -0.03298331  0.02530924
   0.01587758  0.01629501  0.00263929  0.11340236 -0.10223155  0.03429412
  0.0072694  -0.00714778  0.00101913 -0.00370239  0.02713284  0.02218626
  -0.00371272 -0.00573283  0.02288321  0.02070241 -0.01930625  0.02893127
   0.01939875 -0.00765624  0.0038939   0.01396452  0.00447284 -0.00574179
   0.00991644 -0.02842286 -0.00174465  0.01086614  0.00961252 -0.00556898
 -0.02346664  0.00166757  0.02682232 -0.0078275   0.00539453 -0.02878736
   0.00984565 -0.01100422 -0.01381388  0.02031833 -0.01209137 -0.014395
  -0.02182335 -0.00358832  0.01208693 -0.00519879 -0.01482295  0.01028372
  -0.02159534  0.02081881 -0.0251871   0.02244401 -0.01109531  0.01232051
 -0.01657058 -0.02881351  0.00272278  0.00728394  0.01278174 -0.00999788
   0.02207905 -0.01932761  0.021394    0.01929303  0.01202786  0.00847722
  -0.01370219 -0.00035239  0.0239314   0.00508327  0.02343682  0.03188338
   0.02491044 -0.01028306  0.03362863  0.02227528 -0.14922036 -0.03570817
 -0.02271448  0.00479945 -0.02189278  0.00129655  0.02573048 -0.01410131
  -0.0027796  -0.01166474  0.02937355  0.00366377 -0.01597898  0.00994769
   0.01551625  0.00233475  0.00822282  0.01592078  0.00089619  0.01459283
  -0.02686021 -0.00587297  0.01528433  0.00425834 -0.01707044 -0.01910774
 -0.00233388  0.06334263  0.00946088 -0.01735257 -0.0093517  -0.02177287
  -0.03465056  0.03377041 -0.010047   -0.04778293  0.0217852  -0.02136734
  -0.028701   -0.00155899 -0.01414877  0.0034292   0.01365936 -0.00321402
   0.00395604 -0.04450937 -0.03942896 -0.0241174   0.06580151  0.0749912 
 -0.01787122  0.02536131 -0.02616672  0.0181365   0.01033834  0.04553732
   0.01309277  0.02032919  0.01387696  0.0373865  -0.01432809  0.03021258
   0.02114887 -0.01196388  0.0112874   0.00078377 -0.01920342  0.00579664
   0.03366987  0.0116359   0.0350445  -0.02564344 -0.17103775 -0.02160745
  0.02529477  0.02202872 -0.02267786  0.02843337  0.01865649 -0.00236905
   0.01749121  0.01972453  0.00112938 -0.01332724 -0.01966664  0.01639654
   0.02770116 -0.00042135 -0.00293203  0.00843842 -0.00134221  0.02138725
  -0.02579343  0.0255751   0.01981815 -0.01365275  0.00751975  0.02630538
 -0.00951701 -0.01364212  0.02554473  0.00393186  0.00189062  0.0219909
   0.02499265  0.01385019 -0.02060749  0.02623986  0.01796275  0.00930389
   0.01153921 -0.00731322  0.00250874 -0.01860939 -0.02106709 -0.00137167
   0.0107324   0.02499683 -0.00580466  0.01459689  0.01813008  0.00324437
 -0.07690625  0.02871319  0.01113547  0.00510004 -0.03444072 -0.01855182
   0.01726242 -0.00337937  0.0073993   0.00368929  0.04817265  0.00374261
  -0.00093854 -0.03068022  0.02197015  0.01957331  0.0320834   0.02536881
   0.02933693 -0.02321222  0.03729514 -0.08050077 -0.01611529  0.04132593
 -0.02492735 -0.0165534   0.02285447  0.01622715  0.0282527   0.01942001
  -0.02004646 -0.02365609 -0.00843206 -0.01348699 -0.02685675 -0.01595461
  -0.00667345  0.01588377  0.009881    0.0260325   0.01985608 -0.01707703
   0.02137993  0.00645199 -0.00109594 -0.00042419 -0.01014809 -0.00204681
  0.06697565  0.05628634 -0.10222114  0.00870444  0.01309068  0.00874245
  -0.00659381 -0.01568234 -0.00602536  0.0210945   0.01888259  0.01861266
   0.00112032  0.03112881 -0.03984644 -0.03303443  0.01338955  0.02390088
  -0.00866391 -0.00084055 -0.02818043 -0.10059544  0.04688479  0.04630545
 -0.06077731 -0.01429926 -0.02288918  0.01182682 -0.01169875 -0.01786239
  -0.00620686  0.00117997  0.00368653  0.0122475  -0.01852909 -0.03662004
  -0.01225121 -0.02730292 -0.0155857  -0.02727611  0.04963678 -0.01484693
   0.04018931  0.04865651  0.0087901   0.08284301 -0.01344993 -0.03113276
  0.02819378 -0.01529652 -0.02825388  0.00144816 -0.00381577 -0.02029564
   0.02128638  0.00174915  0.01167472 -0.00957098 -0.01352838  0.00000495
   0.01243395 -0.01919086  0.00511433  0.00921621 -0.0260126   0.01208408
   0.00690685 -0.01394851 -0.0036497  -0.02095345  0.02617608 -0.01651867
 -0.02354326 -0.00398672 -0.00446836  0.01930491  0.0181151   0.00399232
  -0.02404805  0.02089752 -0.01008952  0.0119461   0.01086396  0.02529166
   0.01878221  0.01471772 -0.02498855 -0.02618628 -0.005976   -0.00720229
   0.02772815  0.02412478  0.01854861  0.01049572 -0.02584414  0.018363  
  0.00669959 -0.00332772  0.08204436 -0.01632159 -0.01944794 -0.02454273
  -0.00420602  0.03153766  0.00815427 -0.00976595  0.03052976  0.03160548
  -0.01262803  0.01310521  0.0212492   0.00876053  0.02395488 -0.00344535
   0.00000501 -0.02068067 -0.0028734  -0.00707301 -0.07902063  0.0203846 
 -0.00079428 -0.00014681  0.03083114  0.01618297 -0.02015036  0.00575983
  -0.02555549  0.01024601 -0.00089052  0.00982528  0.01838634  0.02518217
  -0.02025514 -0.00047138 -0.0088983  -0.01245235  0.00192865 -0.01280469
  -0.02427269 -0.02791056 -0.02555196 -0.02893777 -0.00405313 -0.0248454 
 -0.01494222 -0.01040965 -0.00397477  0.00205402 -0.01427469 -0.00059644
  -0.00925346  0.00325212  0.00924216  0.02445571  0.02622065  0.0265232
  -0.00251213  0.0239747  -0.02404874 -0.03786356 -0.03346135  0.01438892
  -0.01974862 -0.00000433  0.03426057 -0.04184655  0.01753354  0.00639527
 -0.03232675 -0.05674063 -0.03437215  0.00914798  0.04192283  0.00082657
   0.00411695  0.02541571 -0.0046649   0.00528911 -0.00920116  0.00869453
  -0.00063257  0.0172582  -0.02014361 -0.01033543  0.00142177 -0.01505054
   0.01964329  0.01480209  0.00951885  0.00950401 -0.04250845  0.00104049
  0.0141422  -0.02330845 -0.00631935 -0.02421531 -0.01439896  0.01084945
   0.0090722  -0.02662452 -0.00184899  0.00034883  0.02116908  0.02482715
   0.00451187  0.02510443 -0.01291019  0.01051724  0.00851481 -0.0108149
   0.00354004 -0.02498296  0.01247493  0.00722644 -0.01905394  0.00080257
  0.01961266  0.00008722  0.01017837 -0.00738016  0.01934038 -0.00110943
   0.02166099  0.01694539  0.0053549   0.00543983  0.02093832 -0.02130857
   0.01855174 -0.01342582 -0.01483177 -0.01773603 -0.02157757  0.00220066
  -0.02258221 -0.01421775  0.02366053 -0.00749562 -0.02599412  0.02377422
 -0.08946928 -0.00455249  0.0478796  -0.01238592 -0.00122395  0.00483814
   0.03313275  0.0455911   0.02547597  0.04177376  0.02489183  0.03428305
   0.03368913  0.03738214  0.02521813 -0.00250795  0.01456144 -0.01123323
  -0.0288003  -0.03531217 -0.03354274 -0.03884148 -0.01857614  0.01088193
  0.01525128  0.01457419  0.00833472 -0.03431454  0.00179147 -0.00462032
   0.0028255  -0.00568699 -0.01828387 -0.00529217 -0.00444823  0.00172771
  -0.02967352  0.01555774 -0.01958054 -0.00162646 -0.00232282  0.01212202
  -0.01505271  0.00792324  0.01842262  0.01484182  0.00860055 -0.01171906
  0.09605546  0.03436476 -0.04303901 -0.02246455 -0.02114685 -0.01976265
  -0.02156095 -0.02943554 -0.01572774  0.00705007 -0.03281221 -0.04257404
  -0.02668887 -0.01627312  0.00338773  0.01290846  0.03540912  0.01613103
   0.04185976  0.0252426   0.03981955  0.03971662 -0.06291457 -0.06717412
 -0.03780464 -0.02993453  0.03859382 -0.00815776 -0.01311192  0.00684881
  -0.01299109  0.00137236  0.01585317 -0.00175946 -0.0087753  -0.01158681
   0.03327146  0.04156854  0.03265963 -0.01544815 -0.04986161 -0.01535295
  -0.04152793 -0.01104836  0.03075692  0.02646944 -0.07994128  0.07363804
  0.01667351  0.0210411   0.00978938  0.01033244 -0.01225752 -0.02746237
   0.00881882  0.00208692 -0.00430903 -0.01466745 -0.02404383 -0.02458252
  -0.02679462 -0.00087721 -0.02620138 -0.00161563  0.00835014  0.02608694
   0.00001933 -0.00324936 -0.0180013  -0.01597046 -0.01908527 -0.01708129
 -0.02590483  0.00134651 -0.02153184 -0.0117131  -0.02169151  0.0079204
  -0.02044925  0.02310871  0.00914181 -0.02254533 -0.02254692  0.00964452
  -0.0070594   0.02742056  0.0145718  -0.00360399 -0.00878661  0.02426923
  -0.0249746  -0.01067012 -0.00432129  0.01271703 -0.0008572  -0.00319344
 -0.05029874  0.07585434 -0.1143861  -0.06508615 -0.03909933 -0.03199863
   0.01012791 -0.02110947 -0.01445161 -0.02661247 -0.01114987 -0.00953462
   0.00214791 -0.032092   -0.02671115 -0.03304182 -0.0491929  -0.02948764
  -0.03808536 -0.00896994  0.04451156  0.18011506  0.15757808  0.00288934
 -0.00085275 -0.00238197  0.03284775 -0.01939977  0.01687584 -0.02069087
